0.07014771
-0.10061682
-0.12737635
0.07193056
0.2115034
0.24767399
0.14919713
0.08196723
0.13719451
-0.7394768
0.39848977
-0.5033169
-0.29214028
0.052422926
0.20303835
-0.79030603
0.68533707
0.37358654
-0.7742374
0.48116714
0.5325538
-0.7353957
-0.33240467
-0.76767844
0.3973226
1.0627562
0.09196719
0.3743717
0.93810534
-0.5889267
0.3405596
0.8321455
-0.9423741
0.24619934
-0.99205536
-0.64714867
0.33385077
0.40552688
0.31259486
0.005959213
0.016001832
0.46811956
0.22824392
-0.57282174
0.18507075
-0.67040026
2.4626324
-0.08634366
-1.2442636
-0.07194026
-0.4147158
0.69533885
0.1267255
0.84189814
-0.17573993
0.008568749
-0.27022377
-0.6373773
0.1524149
1.8428328
-0.9821038
0.39442635
0.25230068
0.640283
0.48196715
-0.19989806
-0.06959393
-0.30629963
-0.3826404
-0.23413776
0.39381176
-0.544599
-0.04293023
-0.19876227
-0.3839759
0.077519566
0.10421421
-1.3318385
0.033400316
-0.6592749
-0.36080307
0.7023926
0.11412049
-0.10357763
-0.2528388
-0.52391845
0.7087176
-0.3175652
-0.48711193
0.5072382
0.68642664
0.5455552
-0.23707324
-0.20541626
-0.6169155
-0.088014655
0.34904927
0.66131675
1.124234
-0.57708377
-0.7099696
4.6986656
0.61367464
-0.16241609
0.53847426
1.0607584
-0.5744334
-0.22869253
0.21955425
0.30777976
-6.1156206
-0.5170951
-0.5242522
-0.071741015
-0.0903137
-0.7044848
0.012983516
-0.27088052
0.41523457
-0.9181278
-0.5265558
-0.7555314
1.3525385
0.08026882
-0.89614666
0.06115608
-0.71242917
-0.946797
-0.26650733
0.086797446
0.16548449
-0.2500925
0.037895862
0.1690565
-0.11734865
0.41689247
-0.013310179
-0.099314496
-0.8952916
-0.23381309
0.3101413
0.42785302
-0.06644931
0.4986182
0.19531432
0.18451458
-0.4861823
0.038294896
0.4687012
-0.3530742
-0.4686695
0.6077564
1.9238446
1.8426998
-0.3909685
0.35437205
0.26343402
-0.21927315
0.3500527
0.73106885
-0.68182063
0.18808076
-0.6464982
0.0067752525
-0.43562365
1.0122252
0.47909355
0.027586497
-0.42994922
0.3969915
-0.5379934
-0.54096913
0.7710425
-0.5552199
1.8120233
0.4531054
-1.5231392
0.121748954
-1.9514287
0.42010647
-0.48562533
1.0876243
-1.0153128
-0.19732721
0.06781863
-1.3426102
-1.2906982
1.0308288
-0.22459704
0.76311594
-0.74356776
-0.39123386
-0.19156365
-0.30023316
0.22023822
-0.08790871
-0.27096754
-0.024186686
0.29372135
-0.04471849
-0.36844283
0.7771939
0.11420953
0.09531713
-0.0709845
-1.0190295
0.3023184
1.1291668
-1.9282048
0.39674994
0.05688343
0.1497353
0.42783752
-0.5154064
1.5354695
-0.6977543
-0.9050819
0.8072071
0.3212986
-0.38679802
-0.27992663
0.19979967
-0.054515526
0.47473168
0.68338346
-0.037729073
0.34139577
-1.1735892
-0.25874874
3.733334
-0.08201495
0.0007038191
0.7581747
0.5261342
-0.78394526
-0.60978556
0.8972741
0.40565687
-5.9968147
-0.16087896
0.5486396
-0.106701
-0.8341058
-1.0739684
0.46681923
-0.2762901
-0.34038
-0.90296173
-1.1764491
-0.8611815
0.97130525
0.12545025
-4.8726444
0.25063568
-0.0034082532
-0.7684129
0.07206063
0.36950314
-0.06825626
-0.3557137
-0.39670604
-0.12162485
-0.275871
0.2539382
0.3706141
0.16830677
-0.28339756
-1.0290021
0.16016755
0.49590483
-0.95010906
0.4544948
1.3423942
0.38373062
-0.33085737
0.3426586
0.10815569
-0.74656945
-0.4078616
0.12632208
0.55092007
1.1873133
0.60138416
0.62484
0.41120878
-1.4515673
1.084722
1.4004071
0.028210819
-1.1818845
-2.2593718
-0.10121972
-1.0325626
1.5454118
1.3856536
0.80192286
1.5187045
-0.113095924
-0.015045673
-1.3290054
0.29205212
0.016218506
2.5331004
-1.5340401
-1.1698375
-0.75162184
-0.12479617
0.2635434
0.40405574
-0.14238435
-1.2984834
0.8358262
-0.44631475
-0.26217872
-0.39327145
2.9627526
-0.54223883
0.84638274
0.23221743
0.8564547
-0.48758608
-0.33260748
0.8667859
-0.335827
-0.46611983
-0.28842098
0.6532963
-0.10992314
0.29159775
1.0558683
-0.24173641
0.5875692
-0.24052973
-0.87112194
-0.104282066
0.46345747
-0.97539437
-0.2971699
0.675104
-0.17287947
-0.7695648
-0.8229834
1.9515187
-0.32719392
-0.13035327
0.7989584
0.16028763
-0.3355788
-0.44551682
-0.41323254
-1.059337
-0.15693516
0.23759955
0.49997297
0.4404242
-0.66167164
-0.9843015
4.4361463
0.005555965
0.7175306
0.40901953
1.9748087
-0.005207151
-0.82660544
0.50217545
1.6787057
-4.6872067
0.2730498
-0.9387774
0.5709939
-0.8122454
-0.5786786
-0.07513106
-0.2791951
-0.13539526
-0.7181827
0.35605294
-0.25014675
1.9952704
1.0997915
-4.4135876
-0.85971946
-0.5551585
-1.6387377
-0.009595321
-0.09923056
0.122152984
0.17475295
0.24552314
0.2884727
-0.0777786
0.26606256
0.028916515
-0.022294082
-0.43533283
-0.15879998
0.20890486
-0.1475586
0.601413
0.44992897
0.6403216
0.3933823
-0.2670124
0.16598684
-0.2879793
-0.7532234
-0.42958546
-0.34506243
0.2785584
1.3885367
1.1419415
1.2163191
0.4621101
-0.6782721
0.29625767
-0.46263844
0.41308063
-0.4709495
-1.0279671
-0.043647006
0.36430043
0.96915317
1.6206434
0.13172306
-0.03029345
1.3856044
-0.85592043
-0.9171017
0.322329
-0.74013597
2.0079217
-0.43050358
-2.2521224
-0.44333676
-0.97015595
0.5970297
0.13772699
0.765094
-0.77848417
-0.87105954
0.7441597
-0.07174453
-0.7352034
3.8950114
0.16944854
1.9735796
-0.61694914
1.4163564
-0.13831067
0.17545463
0.11725235
-0.11829466
-0.07388933
0.16309229
0.29919446
-0.39862445
-0.4015359
0.36347538
-0.2236829
-0.40776423
0.06682265
-0.785509
0.18429057
0.2558584
0.065140806
-0.57799643
0.453394
0.4599408
-0.5311411
0.15211222
0.8211497
-0.6421214
-0.59664893
0.6835102
-0.04312688
-0.5647378
-0.2086618
1.7696285
-0.5191549
-0.7930474
0.3984829
-0.22969408
0.12641081
0.49618924
-0.784297
3.849084
-0.2335759
-0.083692744
0.53950477
0.53818625
-1.0013082
-1.0686516
-1.3572681
-0.39466828
-5.247507
0.09749292
-1.0690317
0.49946362
-0.027254805
-1.0683963
0.029615894
-0.5373485
-0.6900656
-1.1919684
0.7013907
-0.116749845
0.968157
-0.8203221
-5.613387
0.43388888
-1.1745902
-1.5918423
0.00483552
-0.008342592
-0.38799575
0.005706433
-0.069763795
0.10973185
0.021801356
0.17062837
0.19064093
0.04886564
-0.047598884
0.08879349
-0.57108855
0.055746093
-0.049404144
-0.35264677
-0.5478928
0.19310239
0.44926667
-0.16509858
-0.114475474
-0.036639955
-0.19705157
-0.39837942
1.3811088
-0.009034805
0.55884176
0.3827834
0.79172933
0.22899827
-0.15438382
-1.7897393
0.72101605
-0.59936297
-0.52709913
1.7481732
-1.6421955
0.8076734
-0.5331043
-2.6437638
-0.5393224
-6.589681
0.23083416
0.11308071
0.028863773
-1.4344777
-0.34565067
2.2737305
-0.61072063
0.83632714
0.3963918
1.182046
1.895055
-1.2779614
-1.1924458
-0.24774356
-0.6097348
-0.33628705
0.48581368
-2.8526852
1.345085
2.3521175
-0.45860296
1.2088249
-0.040406153
-0.24333514
-0.17245077
0.2564388
-0.27430126
-0.1930562
0.03523527
-0.28493094
-0.2704013
-0.04029202
0.55133474
-0.44290125
-0.01688879
0.06646354
-0.6591548
-0.32890674
-0.522307
-0.18938117
0.03560792
0.008173803
-0.53948075
0.34509936
0.23135418
-1.172498
0.3073966
-0.15456109
-0.45040205
-0.36698446
-0.33134943
0.6356335
-0.44158977
0.41756162
1.5096976
1.5161774
0.6205361
1.5647085
-1.1269506
0.55600137
0.3817169
-0.8144864
-0.08547485
-1.4533286
-0.24492097
0.2031701
-0.61004937
-1.8055009
-0.2117809
0.8515131
-1.3801843
0.63196015
-0.91980886
-1.5989362
0.2316617
-6.1851807
0.056741856
-0.013506621
0.28139812
-1.149255
1.3167413
0.52298325
-1.188098
0.073680446
2.1053596
1.321985
-0.7909394
-0.82731354
0.64678127
-0.0273211
0.5725174
-0.1062556
-0.79597354
0.78673625
-1.1445458
-0.15347825
-0.9962963
-0.83023196
0.08087062
-0.60158104
-0.39895293
0.5890966
0.15157357
0.7325754
1.1367067
0.4995648
-0.66029704
0.7606063
-0.33293253
-0.96155965
0.5017858
-0.5555543
1.777241
0.07370946
1.0861181
1.3672872
-0.5089888
-2.2225678
0.2629508
0.04791878
-0.2547703
1.2831473
-0.4650494
0.46785957
-0.2026737
-2.5192912
-0.099858835
-6.2044897
-1.0210344
0.41549572
0.45923924
-0.7356001
-0.111691505
0.680098
-0.4285993
-0.3721106
0.06445403
0.28934503
0.14265583
-0.7999488
-0.34068054
-0.63313633
1.018236
0.21741626
-0.8893948
0.049315453
0.8977207
-0.18496308
-0.5488459
2.5393023
-0.63865745
0.53084975
0.21737686
-1.436919
0.23526806
1.0980582
-0.45717943
0.9858114
1.6040263
-0.7711505
-0.20682678
-0.5282452
-1.1177101
0.009538569
-1.2761233
-0.8802947
-1.165501
1.2513605
-0.23357427
0.007981056
-1.3453479
0.04546255
0.5630394
-1.5490602
0.12347539
-0.4074546
0.5838843
0.8276752
-0.22302476
1.9416844
-0.8830971
0.15125825
-0.58690125
2.5686483
-0.3232164
0.24813318
-0.56882304
2.5611172
-0.1158964
-0.61679494
-0.47917598
-1.6816592
-1.1859438
2.746604
0.14930715
-0.42248347
0.19076481
-0.6836343
-1.0254593
-0.604846
-0.85196555
-0.52824986
0.6196621
-2.219747
-0.91333026
0.17478913
-0.26973087
-0.33205277
0.04716692
-0.5264286
0.9966195
0.38144928
1.2056577
0.22205311
0.0057742624
-0.15695572
0.02233929
-0.19761133
0.33889824
0.07502723
-0.6138875
0.35722476
0.83725274
-0.32799828
-0.74652135
1.5545745
-1.7758002
0.07738533
-0.6802378
-1.2063648
-0.42286706
-0.25310642
3.1445506
0.07663391
0.23289657
-0.021393448
0.21303083
-0.4376524
0.40570354
-0.38536483
3.054188
1.0032663
-0.38714153
0.24618597
-0.6165612
-3.6902092
0.32847172
-0.45868415
-0.62954295
1.3617804
-0.73195314
0.4345508
1.010056
-1.5455978
0.20297194
-7.907623
-1.9137361
0.095608495
-0.083970115
-0.2943632
-0.05828522
0.72291493
-0.33080316
0.23286457
0.43196112
0.12797005
0.3405308
-0.62029564
-0.5321989
-0.651687
0.9680485
-1.3047742
0.08757655
-1.327772
0.48759842
0.5918637
-0.9182043
0.22402298
-0.3122067
0.14312847
0.008530468
-0.5698572
-0.4870516
0.31648794
0.59108585
-0.26328576
0.37136143
0.10068494
1.2913823
0.30423072
-0.67210126
0.19046971
-1.577017
-0.95349634
-0.7701623
-0.939607
-0.35771942
-0.07123092
-1.2236537
0.51770306
-1.208586
-2.551441
-0.08638565
-0.38498706
-0.64625585
0.63310784
0.09125914
0.47930625
0.1415517
0.90245545
0.036327817
2.6174498
0.6832192
1.6349026
0.23673375
2.180431
1.070144
-0.5149284
-0.59084344
-1.6707957
-1.3415895
0.6458985
0.04246495
-0.64603674
0.07851886
-0.39964002
-0.4953466
-0.503574
0.02027665
-0.94947886
-0.15699457
-2.8014712
0.24838966
-0.09422028
-0.10707678
-0.036823004
0.3559167
-0.473176
1.2858603
-0.35062188
-0.5479466
0.57672495
-0.27140528
-0.45304403
0.31588796
-0.0068990276
0.34022474
0.07249372
-0.3511171
0.14857522
-0.15468366
0.13862932
-0.24197051
-0.064780265
-0.20333828
0.35470143
-0.15556009
0.2611802
-0.29449737
-0.39388204
0.26962543
0.79923433
-0.020970568
0.2658381
0.45872396
-0.36348265
0.3662386
0.23405531
0.45417714
0.8505684
0.54435086
-0.12066448
0.04527085
-0.9740999
-0.32489482
-1.3227388
-0.8956319
2.249649
-1.8389311
0.5934292
-1.058393
-1.1592039
-0.44304824
-6.280916
0.73111385
0.76661384
-0.59827167
-1.0556668
-0.70778394
2.045455
-0.77296627
0.09848276
0.90205294
0.20138182
1.5728647
-0.2389565
-0.10079719
-0.5419073
4.0790405
0.1042219
0.4559206
-0.53464323
-0.14664504
3.5403156
0.7364099
-0.23073348
-0.31777337
0.1940527
-0.008861765
-0.380374
-0.02000871
0.23327541
-0.2561965
0.63773817
0.43506908
-0.07080989
0.060974836
-0.42089823
-0.28817368
-0.19260857
-0.06108241
-0.33181885
-0.86703974
0.50540775
-0.22456455
-0.15458123
-0.26235247
-0.88739806
0.1447504
-0.78957
0.7440728
-0.026116893
-0.1899072
1.0277888
-0.31995857
-0.48043936
-0.23446213
0.123677224
0.63892484
1.5689365
0.6029961
0.07475655
0.33125055
0.16221222
0.4432484
-0.4999494
-0.2656968
-1.3337519
-0.1683065
2.310995
0.18302834
-1.0924417
0.61440575
0.06618394
1.3664491
-0.349517
-0.27368474
-1.0383301
0.15969566
-4.1156435
2.0005012
0.25198102
0.237387
0.9750882
1.1289525
0.20301276
-0.49341333
-0.068544224
1.3869789
0.58967435
0.16638288
-0.07222688
-0.43514332
-0.092964634
0.22273152
0.107994296
0.41490847
0.3318228
0.32019222
-0.5810247
1.8098629
-0.5183984
1.0048707
1.2679591
0.5821317
1.5331889
-0.5083424
0.046219796
2.1082659
-0.153752
-0.7068182
0.53766817
-0.45191193
-0.8832572
0.53772044
0.6914917
-0.6132173
1.0705029
0.28669223
0.9985446
-0.2494018
1.853211
0.07637585
-0.40019077
-0.04233914
0.5268172
0.47787458
0.08681034
1.1066035
0.7171854
-0.2935398
2.0358222
-0.24979278
0.7638878
0.9502627
-0.04899296
0.35166314
1.003296
-0.6717547
0.19717583
-0.94492495
-0.33231536
0.21025142
-2.3515353
-0.60523266
0.40642273
0.031616963
-0.22727036
-0.4126419
-0.7317401
-0.15822235
1.9484433
-0.7388387
0.70881134
-0.06747187
0.080623835
0.09978375
0.14127344
0.26312518
0.15456234
-0.13907865
0.1939508
1.5257077
0.090481445
0.5865288
-0.7758157
1.1199372
-0.77808154
0.43193743
2.5979214
0.33921543
-2.213122
-0.83697367
0.26593918
1.7769496
0.42303252
-2.9816844
-0.17835167
2.736633
1.3059843
-0.836462
-0.19472532
-0.26271442
0.43674675
0.3490686
0.71494997
0.021863624
0.39876765
-3.850604
-0.06384403
0.36959466
-0.45934105
0.45658812
-0.63295007
-0.4377272
-6.594587
-0.28967574
-0.8379804
-0.5911815
-0.49772632
0.7835192
0.590601
-0.10625938
0.97022164
0.15490931
-0.51281106
-0.45451993
-0.31571144
-0.032853678
-1.0440128
-0.4808851
0.48770532
0.9310192
0.44145793
-0.56900537
-0.042716935
-0.03543166
-0.22673488
0.11338821
-0.1494893
-0.093646154
-0.17963001
0.10124147
-0.19968721
0.16582894
-0.09399758
0.3338336
-0.59272563
1.8776937
-0.17727149
1.3560643
0.60926026
0.54571503
1.6599418
-0.039297678
-0.5497111
1.6575726
-0.20454077
0.45428157
1.5693121
0.13892408
-0.26230165
0.35948226
-0.23972653
-0.09974459
0.36825234
0.937155
0.09849976
0.1041959
1.0256917
-0.4543279
-0.27615798
0.51878524
-1.3407587
1.3154066
0.2571286
-0.20005791
0.5626976
1.0549692
2.2382255
-0.17565276
1.1600552
-0.08043828
0.5636694
0.74034315
-0.4372838
0.2045571
-0.28647643
-0.19625819
0.013631523
0.46828768
-2.4840014
0.41746643
0.82023746
-0.5222972
0.5888783
-0.4434275
-0.57510483
-0.31229186
-0.51944816
0.19782695
0.2921198
-0.16757125
0.112591624
-0.095293015
-0.040829405
-0.06293392
0.013625391
-0.16732953
0.36325318
1.5646385
-0.72545946
0.44217184
-0.6548792
0.7757551
-0.5929042
0.58571464
2.5939164
1.0747776
-0.65192914
0.026460707
0.14311573
2.9854474
1.4592736
-1.4304926
0.58223534
3.8837814
1.1583061
-2.1524472
-0.26335984
-1.5625753
1.458641
0.41419557
0.53074753
-0.78754634
-0.09819846
-4.7653503
0.90089923
-0.12721983
0.49720547
0.31777805
0.17019066
0.75026846
-7.008603
1.1913363
-0.0036702007
1.1443421
0.6505089
-0.22483753
-0.384484
0.37281653
0.4202132
0.5191603
-0.32954445
-1.4401522
-0.46047187
-0.04575676
-0.01550664
0.105375156
0.38979217
-0.5738901
-0.90750015
-1.0516467
1.1813134
0.052830122
0.14255989
-0.17756712
0.54603773
0.06651776
-1.2669362
-0.31107515
-0.8660209
1.2897161
-0.07491044
-0.48552808
-1.0839902
1.8928149
-0.32918596
3.359252
1.4695997
0.21972945
1.3440199
-0.33751437
-0.9006954
2.2655027
-0.61921406
-0.48661846
0.34576204
0.3877821
0.5414621
-0.31252733
0.20141128
-0.14255434
-0.6209227
0.83855647
-0.74340695
-0.13270292
-0.4191474
-1.4074157
-0.56399477
-0.028437812
-1.1584793
-0.15895322
-1.0209885
-1.1390686
-0.37615
0.44405475
2.5607378
0.79078305
0.464976
-0.24136902
0.28769702
-0.13238643
-0.68215007
0.42919913
-0.3458514
0.42253315
-0.48956236
0.40871304
-1.5154252
0.12651944
0.12056245
-0.07466701
0.5363249
0.4787813
0.5003827
-0.14431614
0.47761852
-0.16764328
-0.057063423
-0.20469709
0.3307777
-0.6061823
0.15800346
0.9982221
-0.29438394
0.47012293
0.49125266
2.3463986
0.6242002
2.2378182
-0.42471567
1.7447094
-0.16415343
1.2469711
1.5307283
0.23293361
-1.2961123
-0.17336777
0.53499097
2.6108623
-0.05667802
-2.4406815
1.1201309
2.7085998
-0.16214654
-0.13202229
0.99243367
-0.40454668
-0.23528945
0.12753962
1.029883
-0.5687858
-0.56005913
-5.236176
-0.08598033
-0.08687494
0.47398403
0.11682594
-0.31004772
0.2358091
-7.240052
0.29443705
0.6605296
1.0317671
0.24078692
-0.5339918
0.5847695
0.05560529
-0.17312925
1.02792
-0.22354233
-0.9364657
-1.0700355
0.94720197
-1.1587054
0.5332613
-0.028570894
-0.7633347
0.009786442
-0.30381435
0.604324
0.14222527
0.51926583
-1.4198992
1.9262911
0.8196003
-1.9546486
-2.0952067
-3.201191
1.6806562
0.4627645
-1.4752151
-0.6054714
2.225592
0.27944928
0.18191394
2.1475208
0.5958215
0.45100674
0.19030976
1.5089058
2.3713331
0.34088802
-1.7573531
0.5991115
0.7472693
-0.33001602
-0.60785097
-0.13110475
-0.5270884
0.31790006
0.44914082
1.0096439
0.3259722
0.3549957
0.3957555
0.09205894
0.4627476
0.041490294
-0.030628487
0.14677219
0.7571043
0.1343318
-0.11817036
2.5273712
0.15082291
-0.3098782
0.39525518
-0.2713412
0.07073499
0.33035007
0.037816644
-0.6573779
-1.1215785
-1.1274081
-0.5163625
-1.9943972
0.07207857
0.8386321
0.65636873
-0.78339684
-0.049684793
-0.47339693
0.13428459
2.2838144
0.60737693
1.0538818
-1.3449483
1.4785905
-2.4818113
0.6593712
1.5103284
-0.75743705
2.3159168
1.662885
2.3743358
-0.12934026
3.014834
0.1402485
1.9024397
0.092345715
-0.93517005
2.1765606
-0.59217644
-1.8801229
0.30700713
0.557937
1.7022029
0.37502614
-3.0380676
-1.1447985
0.9686408
0.18019527
-0.48724225
-0.29815215
-0.01608039
0.30376455
-0.03759817
0.55986106
0.13304979
0.1093404
-4.6312366
-0.089573964
0.16089426
-0.053696424
0.07319169
-0.14993918
0.1184425
-7.1765013
0.1106717
0.66881096
-0.016594175
-0.20808683
1.282416
1.6077172
-0.053675905
0.26432303
0.8470919
-0.8988406
-0.4638207
-1.3624487
0.56227314
-1.8349415
0.83072376
0.22194073
0.33479637
0.7986192
-0.32459092
-0.54242486
0.8699019
0.17077395
-0.4741964
-0.726176
-0.6458253
0.5928132
-0.01626902
0.2712732
0.2512087
-0.43211773
-0.2658464
-0.6227346
0.033739243
0.33321488
0.4436124
0.30805537
0.47377023
0.10392918
-0.19181587
0.48951894
0.16402343
-0.40008402
-0.48827848
-0.6784925
-1.1122813
-0.7713898
0.21558776
-0.2938286
0.40359867
0.6775662
0.49148795
-0.38577622
0.5181007
0.7588398
0.24056494
-1.2706811
0.7529117
0.50929564
0.006601112
0.20341656
-0.70844424
0.56278175
0.7694454
-0.039367355
-0.2891981
0.40807056
0.21729365
0.7535484
-0.15012524
0.43863642
-0.15286766
-0.6331291
0.92017776
0.48375165
-0.0074133575
0.250062
-1.1387281
2.0696437
-0.25448072
-0.8307303
0.08149524
0.46496868
-1.2812448
0.21467787
4.314105
0.11895118
0.07624389
0.15451346
-0.256085
0.15176785
-0.622128
-0.30906916
0.1890589
0.1591937
0.050835982
0.4114649
0.1498319
0.19018461
-0.42129248
0.340087
-0.3990749
0.7760238
-0.047645375
0.6276393
-0.3571532
0.88270843
0.028012209
-0.16478679
1.0919635
-1.3208718
0.39974767
-0.113977775
0.6514129
-0.18608636
0.48606846
0.35810846
-0.791014
0.7649596
-0.14803639
-0.37265122
0.21481009
-0.4397958
-0.15647008
0.8648094
0.18885358
0.21015966
-5.178161
1.088568
0.679156
0.06662907
-0.31207213
0.6006538
-2.245041
0.48991358
1.6698474
1.7088196
1.7489043
0.46747383
-0.18713373
0.52511096
0.6809777
0.9857853
-0.27524465
1.4704932
-0.6279157
-0.7697985
0.041878924
4.1665273
1.6515254
-0.2876432
-0.4704811
-0.4511689
-0.50014234
0.7462122
-0.033325706
0.34583837
0.13974972
-0.30962136
-0.85783094
-0.077986225
0.296731
0.37904918
0.7225897
0.15679483
0.91020304
0.3803576
-0.033825874
0.12928677
0.17386013
-0.3281267
-1.1447324
-0.35406986
-0.859746
-1.1817666
-0.43375912
-0.4581684
0.26630306
0.0065043727
-0.54983336
-0.5511382
-0.044119492
0.08369002
0.55503654
-1.0039088
-0.5017888
-0.5120194
0.67477584
0.05898034
-1.9377729
1.218998
0.49127698
-0.38517943
0.39265984
0.4421412
0.3478326
0.83741057
-0.31514594
1.3035756
-0.003962338
-0.8717873
0.26048818
0.3030739
-0.065512955
-0.4052316
-0.86063147
2.92121
0.37294465
-0.48171112
-0.109065145
0.34710684
-1.3802041
0.8261881
5.6097727
0.2047139
0.1622194
0.059905823
-0.30822876
0.24539044
-0.4305283
-0.18810096
-0.016482763
0.5436541
0.15621741
0.030404314
0.21965241
0.21149072
-1.0484586
0.4813088
-0.9149848
0.8036252
0.5983538
0.40071526
-0.1871629
0.50382197
-0.49462098
0.21091008
0.91801596
-1.4956894
-0.23768164
0.5970157
0.66494036
-0.6710691
1.3949463
0.43385
-0.99733305
0.19058377
-0.46100456
-0.34675872
-0.007038921
-1.0074036
0.32646653
0.35258225
0.21956307
-0.20362002
-6.0052834
1.1998917
1.0989648
-0.4849376
-1.0748118
1.3714035
-2.4769883
0.71896744
1.9936918
2.055942
2.5010548
0.56880605
0.1272324
-0.06698336
0.12611784
0.9086509
0.06860237
2.0267544
-0.40879878
-1.3823038
0.80725574
3.3294249
1.2526336
-0.7883947
-0.005488999
-0.35051978
-0.09003647
0.19999707
0.35410848
0.1874194
-0.0691449
-0.87524754
0.07918546
-1.1309152
-0.25420198
1.0469979
0.16413336
0.4573638
0.34844512
-0.93330747
-0.36152855
0.19168632
0.26977664
-0.15221304
-0.06889993
-1.3688133
-1.4306363
-0.743002
-0.8048583
0.061595723
0.28190297
0.06637039
-0.27764577
-0.7897815
0.7702395
0.6159817
-0.21151768
-0.3990207
-0.6383266
0.60184103
-0.5333652
0.55153996
-0.6130812
0.21443106
1.2004517
0.28666845
0.020404704
0.6689839
0.17897737
-0.54188746
-0.66257644
0.61148924
1.2684306
-1.052346
0.17977044
0.5450749
-0.2764332
0.005724311
-1.1855978
1.3763481
-0.28495374
-0.3837527
0.35088885
0.23554166
-1.3809956
0.31877014
2.177621
0.7441483
-0.22651117
-0.4335208
-0.22881979
0.517437
-0.63842756
-0.069302335
0.41899008
0.057785124
0.13634717
0.6544381
0.5750341
0.09890027
-0.3511537
0.5745617
-0.32028198
0.9660081
-0.3078906
0.13331187
-0.47963196
0.2704158
-0.5655382
-1.1791062
0.62113214
-0.8125529
0.37569946
0.13033195
1.224972
0.7783275
0.2722934
0.28752246
-1.0584052
0.02611588
-0.34129936
-0.83484524
-0.7857194
-0.14061202
-0.12590769
0.515491
-0.3942157
0.41087574
-7.78152
1.0266969
0.74980724
-0.052029617
-0.80634105
0.53977513
-1.6858462
0.44176018
0.5218204
1.0131466
1.34779
0.76162815
0.26806042
1.0323426
0.31116092
0.14941338
-0.7603066
1.7465066
0.1809305
-0.6007786
-0.14320931
4.4440374
0.3011986
-0.35697994
0.25950813
0.1810354
0.18502037
-0.22087157
0.5286725
-0.11048929
0.15046273
-0.12854257
-0.21014757
0.38844764
-0.43264818
0.81181836
-0.0048445463
0.6646695
0.26935732
0.2956295
-0.25074258
0.40113536
0.7527316
-0.37297505
-1.2111124
0.115620255
-0.72017705
0.80077136
-0.16005799
1.0623027
0.43055135
0.5301909
0.5123403
-0.44933578
1.9204947
-0.13698167
0.7350151
-1.0390091
1.2521145
0.70449907
0.93297315
0.12730655
0.041769158
-0.3082989
0.31701195
0.4029748
-0.08990084
0.9853688
-0.14331925
1.0390179
-0.9072418
0.0013611764
-0.7947127
0.27074257
1.022503
0.38644606
-0.13128307
-0.36805716
-0.3293602
0.9043198
-0.01691392
-0.8554584
0.004494302
0.7475442
-1.9851267
0.12891051
5.006293
-1.1726863
-0.15465707
-0.21846524
-0.22111212
-0.15052667
0.1355233
0.11267267
0.3998372
-0.59249085
-0.27312058
0.3368419
0.5664396
1.0195788
0.05705844
-0.23786022
-0.44521087
1.3477123
-0.316015
0.26158386
0.3528497
-0.37371865
-1.0708905
-0.85232663
1.1501539
-1.2785091
0.6217067
0.3822401
3.37476
-0.16323593
0.98876
0.7680168
-0.60546553
-0.8752464
0.90282047
-1.6308601
-0.30267638
-0.19779998
-1.224541
0.9472759
-0.103282094
0.34568912
-8.37973
1.1692815
0.32999116
-0.30882725
0.039739262
0.03184238
-1.4554818
0.018112332
-0.15804788
1.0600145
0.7998287
0.2855155
-0.34042892
0.3095109
0.36489955
1.1738226
0.188276
0.3854853
1.663233
-0.18523198
-0.34690762
3.3638802
0.65241325
-0.7092738
-0.19904591
-0.2791277
0.13996667
-0.17191835
-0.43060794
-0.0077093914
0.07423726
-0.063779294
0.4731191
-0.12640214
-0.10744846
0.53722787
-0.5335186
0.16479927
-0.68683726
0.28380245
-0.4946298
0.3425861
0.24359646
-0.39898217
0.04831016
0.99653333
0.03870662
0.99815327
0.68564045
0.022459269
0.91721356
0.02917279
0.055842675
-1.6805644
1.0356703
0.0067105666
-0.017251864
0.97385067
0.17663659
-0.14259571
0.24532907
0.4809647
0.113413334
0.040176496
-0.98206055
0.413102
0.34321344
-0.5280993
-0.082248375
0.48638338
-1.203061
-0.14087431
0.10218306
-0.6003304
-0.75399655
0.080083065
0.035363108
-1.449737
-1.2471073
-3.285898
1.5524129
1.0513468
0.40699008
-0.79938227
-0.49179816
0.016174853
0.12731862
1.5563937
-0.0051547363
0.2153987
0.26582897
0.15877435
-0.29724646
-0.63213354
0.2422252
-0.30437165
0.010916248
0.33259124
0.0053289756
-0.44940242
-0.12038207
0.10699813
-0.3143066
0.097947866
-0.22345318
-1.0331612
0.7640717
-0.07677756
-1.6266503
-0.19266719
0.7187966
-0.50469697
-0.4173246
2.1739206
0.47067142
1.7096441
-0.5800798
0.42869365
-0.9018763
-0.95458376
-0.4556312
-0.52803254
-0.18406597
0.247758
0.059186533
0.0036465079
-0.6214782
-7.8254647
0.5425507
0.40566924
0.5282328
-1.172948
0.07254416
0.3132537
1.4386445
0.061002344
1.2927105
-2.7075646
1.2304487
1.2601334
0.44508517
0.31376618
0.7368568
-1.3550692
0.6910229
0.43482655
-1.4281579
1.1034434
3.7417374
-1.7547274
1.0659547
-0.59529674
0.0077211484
0.011192614
0.34065038
0.06296326
-0.54152614
-0.14770733
0.40447375
0.06846675
0.20225817
0.0469898
0.0052109957
0.16404271
-0.07886036
0.3984588
-0.36452258
0.05985488
-0.1773879
-0.40715578
0.15606092
-0.8858777
-0.055872317
0.7176549
0.07317571
1.2414544
0.00800471
0.17746466
0.75022537
0.19743285
0.056140922
-1.1717457
0.556642
-0.17923918
0.099475354
0.38046288
-0.5326223
-0.7467668
-0.25566524
-0.05056496
0.5387558
0.07328671
0.038135286
0.08339514
1.1387483
-0.34581476
0.7322383
0.062470183
-0.9107044
-0.62611514
0.5532395
-1.4266249
-0.4311742
0.113648
0.3679052
-0.52546513
-1.2477434
-3.0067983
0.52451557
1.4161686
-0.057501324
0.17187406
0.35718688
-0.012601525
-0.1716179
0.42697626
-0.45971474
0.06683968
-0.05168075
-0.03204422
0.037305087
-0.37933975
0.17722012
0.052541535
-0.073481314
0.3808453
0.24883336
-0.48739824
0.509571
0.39209297
-0.172334
0.08764797
0.20432654
-1.1383073
0.4057768
0.05968392
-0.5530943
-0.004848592
1.0787781
-0.64513755
-1.1247274
1.0716947
-0.056844402
0.88551533
-0.57083726
0.8168801
-0.5338695
-1.1291116
-0.069237575
-0.61591333
-0.5961327
0.52641946
0.55687654
0.2521499
0.030578453
-7.1142635
0.23035887
0.8921526
0.26338232
-0.559937
0.22606722
-0.29275933
0.508402
0.002780944
1.1550654
-1.4509481
0.61360794
-0.34406915
0.37856692
0.06459415
0.77961344
0.06277011
0.061037667
0.4349031
-1.0401846
0.117006004
2.9913578
-1.8711195
1.4237603
-0.30810934
-0.357496
-0.84716624
0.07065179
-1.1407136
-0.48644173
0.13068111
0.73761314
0.58445513
-0.33178237
0.5334623
0.28483826
0.90740883
0.14337142
0.8863156
1.0391572
0.6843063
0.4701751
0.09049899
0.5017448
0.42169464
0.31992543
1.2174504
-0.077036835
0.9468535
-0.01678501
-0.10165792
0.5402
0.18583977
0.31293854
-1.7342442
0.74195457
0.7992531
-0.21124947
1.97213
-0.7589278
-0.67854714
-0.07515687
1.0608544
-0.04674065
0.13705203
-0.82666934
0.1115649
-0.3148319
0.5735204
-0.4489522
0.121685594
-1.1985943
-0.6964699
-0.15008253
-0.54160976
-0.37533522
-0.89145106
0.07394031
0.4009341
-0.5818094
-2.7654588
4.8992343
1.2597743
-0.11505246
0.020885136
-0.10996553
-0.090789355
0.41364288
0.5148999
0.079331465
-1.0981745
0.6848058
-0.7080587
-0.61340344
-0.6441897
0.37086865
-1.8494092
-0.596623
-0.4836752
0.9758861
-0.8407961
-0.043058634
1.8263772
-1.2320015
0.10909587
-1.15797
-1.0125645
0.3563658
-0.87171566
1.2528768
0.8296327
2.8994296
0.42380887
-0.42313772
0.5463327
0.25846243
0.46141604
0.22363943
0.93921083
0.6838803
-0.054966643
-0.6481003
-0.2006065
-0.34063235
-0.3822507
0.10244283
-0.5956596
-0.16128239
-7.5145235
-0.5771418
-1.487756
0.12634848
-0.23603666
-0.32429397
0.4491743
0.24774152
-0.09589048
-0.004723292
-2.0539865
0.41539186
0.4057749
0.67931217
0.55804265
-0.5878743
-0.5112848
-0.17479098
0.6451864
-1.0621616
-0.2948002
3.0796432
-0.47823405
1.3587507
-0.74124104
-0.077293426
-0.16058245
0.12894061
-0.035773344
-0.5558372
-0.2011673
0.44332844
-0.09645568
0.23156953
-0.10377288
-0.38523495
-0.11382983
0.20040634
0.35004407
-0.66979593
-0.74322003
-0.22768486
-0.49556395
-0.102066875
-1.120045
-0.004278481
-0.12615559
0.052882183
1.4378133
-0.39827898
0.43164843
1.0255753
0.7659129
0.3107937
-1.1982853
1.399118
-0.07983955
-0.09451841
0.22616631
-0.64969504
-0.43690243
-0.48423752
0.21770807
-0.21822053
-0.3751582
-1.0827085
1.9482381
-0.2930516
-0.66864705
0.7932515
-0.36309677
-1.5577166
-0.26434726
0.42822942
-0.81128407
-1.2835045
-0.28342167
0.6098134
0.5837011
-1.8640256
-3.1471303
0.82706153
1.0870076
0.12880969
1.1797668
-0.32234278
-0.16779503
0.8790175
0.9171734
-0.15354596
-0.30582228
0.11036932
-0.013756178
-0.26689455
-0.3845132
0.62711203
0.20421416
-0.031396247
0.99599123
0.50242066
-0.5406302
0.47135732
-0.06554411
-0.28757203
-0.29179293
0.41474658
-0.8744826
0.34637862
0.028027788
-0.83376783
-0.020779207
0.87569964
-0.95452416
-0.9962955
1.2499576
0.5271583
0.3128192
-0.5830808
0.5947594
-0.4273738
-1.1989489
0.26907483
-0.8886644
-0.42687878
0.82458663
0.73942727
-0.6157645
-0.5559825
-6.2017345
0.5222313
-0.0678183
0.14933965
-1.4409757
-0.03543158
-0.94670814
0.80959713
0.19296077
1.3040085
-2.1137533
0.93245965
0.5601229
0.8476703
-0.20507583
-0.2178857
-0.9103747
0.4216686
0.7722142
-1.1900928
-1.4869177
3.4032187
-1.9772949
1.4139928
-1.1206508
-0.15758964
-0.48901707
0.11837982
0.28544986
0.67829317
0.26808226
0.03406168
0.09842254
-0.2277532
-0.74539006
-0.34448108
0.23078726
0.96732825
1.0922838
0.5837956
0.060874294
0.3687908
-0.2881314
0.2552688
-0.28845668
-0.72456235
-0.597949
0.92345834
-0.8218378
1.1911694
-0.16311488
-0.20361382
-0.07534596
-0.10310289
-0.075192526
-0.4117537
0.4667033
-0.057402425
-0.42344612
0.95111746
0.060165033
-0.4719301
0.2055738
-0.6975836
6.181174
0.2563801
-0.91008586
0.046978414
-0.7540546
-0.83487386
0.04556705
1.7729402
-1.1599789
-0.48113826
-0.2553096
0.042439915
0.16304374
-0.08194007
-0.9768206
0.4430961
0.49851283
0.38696995
4.8599257
-1.5374455
0.45684332
1.7089016
-3.2245102
-0.8930959
-0.47984448
0.16853255
0.17789745
-0.4392601
-0.33193895
-0.065209374
0.4646583
-0.025172945
-0.7642918
0.1109876
0.45467883
0.01413516
0.28535396
1.1925114
0.5109107
0.0064258277
0.50546217
0.14289966
0.2629285
-1.1090152
-0.44818172
0.5129273
0.6084852
-0.7112829
-0.7413865
-0.80801386
0.9401307
0.7624322
0.43250316
0.6951448
0.15483016
0.29390258
0.3669086
-0.6925346
0.79614586
-0.11488816
-0.579545
1.0720186
0.36961794
0.9458522
0.61531454
-2.392938
-1.0702585
-0.21118101
-1.1502262
-0.548551
-1.7859484
0.4470904
0.5504247
-0.4289831
-0.021842696
1.2824105
0.16660672
0.006476283
-0.6755238
-0.4475391
0.5908708
1.5264764
-0.12320434
0.42318735
-0.76164305
0.99963546
0.8568571
3.781321
0.9226755
-0.31954843
-0.29358333
0.24176735
0.009272639
0.18588535
0.2132389
-0.085216254
-0.47070065
-0.18311292
-0.3248111
-0.39763305
0.29734278
0.20392025
0.8570658
0.091338456
0.2525057
0.17817616
-0.5944588
0.40244132
0.36213732
-0.14216253
0.23852128
0.31893778
-0.54625434
0.1852786
-0.31474918
-1.181132
1.3368962
-0.5455687
0.44226938
-0.26855552
1.0711929
-0.8824782
-0.12603694
1.0183147
-0.2546386
0.9038694
0.26558667
0.08218084
7.8219666
0.2204805
-0.04095628
0.09888652
0.95325565
-0.32590353
1.4415066
-0.43674135
0.5127579
-0.22041357
0.49999157
-0.20207591
0.6427069
1.3772421
0.34886587
-0.03895683
-0.33531016
0.24292544
2.245474
-0.6855134
0.04486361
-0.06820311
-1.7149646
-0.7582118
-0.38346818
0.13623197
0.43734536
-0.43235192
-0.58716893
0.068392664
0.23794037
-0.11669804
-0.21348912
-0.052459896
0.4150778
0.68012667
-0.32391503
0.36011952
-0.1482544
0.7095831
0.026210066
0.19034007
1.1298786
0.2613937
-0.86700547
-0.11923133
0.22865158
-0.35024083
-1.716856
0.53810275
0.69268084
0.69197977
0.46261632
1.4579929
-0.117594466
0.35334516
0.49719602
-0.9415355
0.5569414
0.30271614
1.2459631
0.641591
-0.5841846
0.6692984
0.5134875
-0.99207085
0.58861345
-0.2282021
0.33257532
-0.3490159
-0.27325195
-0.45674422
-0.009749159
0.036964446
0.02191896
0.3888295
-0.16310707
-0.63842624
0.536936
-0.14262551
0.23427938
-1.2473469
0.23066828
-0.30413744
-0.07123953
0.10017656
0.66324955
4.236038
0.57602954
0.22392482
-0.3470652
0.17989099
0.54083514
0.29643154
-0.039058477
0.22360735
-0.09993237
-1.2661369
-0.7431565
-0.8998873
-0.21241105
0.049207143
1.5235329
-0.47394246
-1.1387748
1.1898724
-1.7651851
-0.61584294
0.76848936
-0.76872677
-0.8843019
0.8438151
-0.38079298
0.86807543
-0.40856165
-0.6133554
-0.33139586
-0.86682004
0.096488
-0.6651082
0.7418982
-0.75299615
-0.67447627
1.8576074
0.3693191
0.6141327
0.041366518
0.45894545
10.208976
0.18065985
-0.30107003
0.07324429
0.35578907
-0.50646037
1.3089447
0.7076641
-0.06282359
-0.83571804
0.593087
-0.11958692
0.37286234
0.42559487
-0.053661495
0.7444957
0.17083508
0.79638726
4.0554233
-0.8597654
0.059269764
0.04541083
-2.3906965
-0.14385657
-0.051114388
-0.21002334
-0.2795001
0.032393426
-0.42139173
0.22030771
0.45681828
0.018637955
-0.67582536
0.08770169
0.28851616
-0.3009397
0.9361905
0.41165888
0.27954602
0.5515774
0.9718641
0.72916234
-0.07046912
-0.09877222
-0.8115798
0.101614445
-0.3283562
-1.2076848
-1.8724431
1.5582623
0.86815757
0.47974962
0.10610851
0.5801983
-0.8414626
-0.34308475
1.1507919
-0.7266453
0.46438682
0.74064344
1.0494208
0.42653272
0.5538794
0.8646867
0.21709614
-1.359317
0.15656601
-0.36882985
-0.70837384
-0.23622534
-0.96839833
0.38198555
-0.11997384
-0.62943065
0.44809756
0.8189416
0.3745765
-0.93140227
0.20628597
-0.51439434
-0.12211993
0.34947813
0.18593115
0.15150394
-0.83409643
0.55887955
1.0226641
3.1593192
1.1940892
-0.45798463
-0.3427919
0.288913
0.10452476
0.43633813
0.16720963
-0.11710601
-0.43510342
0.17214929
-0.25109094
-0.28993753
0.55375046
0.5265062
1.0825342
0.35959637
0.5505718
0.11803618
-0.5915095
-0.04883507
0.45801383
0.2706879
-0.64250207
0.51886535
-0.8727707
0.32381725
-0.52003884
-0.13390172
0.8050124
0.43835098
0.22187337
-0.74989223
-0.2791475
-0.6097965
-0.7563912
1.3043045
0.47406143
1.4272943
-0.8404416
0.138228
8.3203335
0.45922607
0.14283279
0.23902068
0.9019506
-0.52388436
0.90301955
0.22784986
-0.39491943
-0.5865075
0.056929708
0.6586358
-0.10182947
1.0113952
0.07087992
0.16459586
-0.20770408
-0.4232307
3.6219208
-0.70728755
-0.56296444
-0.97468674
-2.084074
-0.11767262
-0.7417367
0.23468801
0.5712392
-0.36341938
-0.6178817
0.04251323
0.12930265
0.18966943
-0.19285095
0.056055784
0.50359136
0.574481
-0.5949626
0.64966035
-0.1919884
-0.040633276
-0.37611094
0.9469884
1.0758777
-0.54076374
-1.1616626
0.18999922
0.25831208
-1.504876
-0.91297543
-0.009727538
-0.4265706
1.2834148
0.26575255
0.8973372
0.7354792
-0.41860044
0.9376503
-0.6224819
0.19772133
-0.30066198
0.26944593
0.7316611
-0.41629666
-0.28388196
0.5342984
-0.072840944
0.7645475
-0.12001544
0.16736734
-0.38618314
-0.97260183
-0.29301316
-0.17624614
0.43946412
0.16477597
0.06783743
-0.07160515
-0.51644033
0.3615371
-0.8037123
0.22016746
-2.2979228
-0.22678971
0.06380835
-0.3973428
0.8347136
0.023943156
2.7715876
0.387781
-0.21529466
0.4373321
-0.23155753
0.3994857
0.0437705
-0.19681624
0.16738476
-0.94506794
0.8023527
-0.2313923
-0.1652321
0.33444977
-1.9609312
1.0405385
-1.7742356
0.25224343
-1.2500454
0.391963
-2.6615107
0.42291072
0.9638555
1.0072283
0.6982733
0.07498883
0.15236306
-0.7770166
0.4646935
2.952854
-0.5036935
-0.64148164
-0.17347056
0.029744
0.36593238
0.01111643
0.28497648
0.0762098
-0.33122277
1.1176538
0.18674225
1.0543221
-0.27911308
-0.60952646
-0.44672766
0.17383009
-0.3133572
-0.50888634
0.16674991
0.081255294
-0.19125587
0.42517024
0.44337243
-0.30601272
0.54701954
4.1385293
0.12365614
-0.10358973
0.25429183
-0.43849683
-0.42190623
3.4366605
0.56284356
-3.5616617
0.51941234
0.5135372
-0.13875137
-0.07843387
-0.086313955
-0.4371553
-0.41015798
0.09142168
0.37679756
-0.2225897
1.2084279
0.027804703
-1.3553555
1.3548783
-1.5607368
0.4838115
-2.951465
0.4829677
0.197916
-0.15822196
0.8492285
-0.041446388
-0.46293187
1.219068
-0.2617961
0.54334307
1.7760984
-0.93140227
1.2059138
0.6634326
0.7861061
0.5844627
-0.26269317
0.69134337
0.52435064
-0.3815878
-0.19759294
0.061414313
-0.7932191
4.2013035
0.78808635
-0.013008803
0.030622274
0.11379556
-0.54197687
-0.43960804
0.28764248
0.70034754
0.052003805
-0.4639122
-0.4060941
0.028442375
0.716829
0.35705927
-0.47187954
-0.079001404
-0.1348007
1.0179378
-0.046158463
-0.23071471
-0.6468275
-0.5726383
-0.03340208
-0.049104407
1.0583694
-0.48675212
-0.089608684
0.083918735
0.3031627
-0.39586183
-0.18245308
-0.04162479
0.069441944
-0.015232325
0.36152622
0.48448718
0.39173445
0.17176816
-0.4866102
-0.32370082
-0.6736746
-0.52632046
0.47477946
-0.94390464
0.8649091
-0.6937907
-0.38250363
0.43416148
-0.31723225
1.3715963
1.1724119
0.48542875
1.0290747
-0.6649471
1.3710073
0.369003
-1.1503568
0.5299584
0.7633652
1.7164111
-0.46664587
-0.1997498
0.34590465
0.74094415
-1.5158303
-0.7898016
0.9600514
0.9961731
0.9328431
-0.7044778
0.525174
-2.2787604
2.588315
2.8906777
-1.2416496
0.12543541
-1.1124374
-0.3741894
2.197135
6.3269053
0.0144560635
0.64427173
-2.2449238
-2.5750432
-1.6875776
5.2985916
1.8423636
-4.9132075
-1.7872647
2.5033972
0.271162
-0.23943603
0.03730275
-0.14494994
-0.48554534
-0.41381076
0.0660443
0.5020247
-0.067822285
0.1949533
0.15530139
-0.28868344
0.9218188
-0.7245636
0.7204894
0.80283785
0.60170895
0.14161113
1.2027721
-0.98273927
-1.0553292
-1.0433699
-0.86478424
0.03334894
-1.3787471
0.16203097
1.6702375
-0.7731031
-0.5113623
0.8031094
1.0699294
-1.6341714
-0.2580049
0.13020864
0.78804904
1.0150719
3.1970727
-0.22607462
-1.0177708
-1.6636544
-0.7655737
0.20983985
0.060646385
0.9235999
-0.28783214
-0.7629088
-1.5862627
-2.9042304
-1.6167028
2.2561018
-0.3934533
1.4540383
-0.9861442
-0.24833937
-0.95140743
2.353544
0.035148054
-0.31404716
0.4362138
-3.1665604
0.17268202
-1.8831028
-0.416071
0.19363281
0.15319584
-0.2702132
0.030943606
0.5644672
-0.071760446
-0.6473772
-0.38804185
-1.3956121
-0.007174652
-0.6714261
-1.3583848
1.898039
-0.4163422
0.36910322
-2.287774
0.5725658
-2.101067
-0.5355472
-2.420164
-0.21904315
1.1101263
0.8283416
1.5139952
0.4891433
-0.33613813
-1.4720738
-0.43272948
3.052758
0.076153174
0.13002911
-0.4513767
-0.6860944
0.78123635
-0.73969567
-0.3445834
0.20442098
-0.59789026
0.9859939
-0.23100911
0.8984312
-0.27986845
-0.34597915
-0.41228095
0.76026046
0.3118118
-0.30014202
-0.589832
0.07171171
-0.17713085
0.07250836
0.5238789
-0.58909774
0.7496258
4.1970615
0.10671086
0.254252
1.021612
-0.0978734
0.11969906
3.8684337
-0.14049439
-3.8931594
-0.5284114
0.22505085
-0.43047714
0.11289103
-0.44686195
-0.0070504323
0.31386778
0.42306367
0.018060692
-0.7477013
0.7667065
0.004386723
0.32381505
2.0138016
-2.5180135
0.47645918
-2.7076774
-0.86379886
0.63988024
-0.6906118
0.4058057
1.0065587
0.048591316
2.3172858
-0.18768133
0.13981166
3.9913945
0.2864031
-0.17432153
1.7579852
0.24949005
1.3747292
-0.98783135
0.7101103
-0.36481196
0.8432817
-0.7862494
0.355841
-0.59228617
4.3835506
0.3580453
0.46944317
0.2671222
-0.06658915
-0.54196316
0.36627364
-0.35734728
-0.2644079
-0.25091705
-1.0137752
-0.8612584
-0.3851535
0.08733943
0.5070147
-0.49877474
-0.5078378
-0.25966635
-0.57160324
-0.1324217
0.23510985
0.32209578
0.49838674
-1.1709508
-0.54927534
0.4105364
-0.13285746
-0.15484788
-0.12264791
-0.021820858
0.16888002
-0.17945562
-0.0011046026
0.2214473
-0.099089816
0.12877335
0.10916192
0.00594748
-0.0776882
-0.032264985
0.36149165
-0.37018642
0.09382075
-0.48797676
0.17680192
-0.24692723
-0.84846467
0.16575018
0.4038997
0.3872232
0.9562581
-0.15391223
-0.25632614
0.3007588
0.74720144
-0.670462
-0.462273
-0.30514222
-0.029884022
1.8629637
-0.34328645
0.055108212
0.5765098
0.636074
1.8748281
-0.31185544
-0.5741564
-0.59343415
-0.8789495
0.3505329
0.7459419
-1.1049496
0.684571
1.575634
1.4887283
-1.2079856
-0.05218926
-1.9984424
-2.1053247
1.5960634
5.0246744
-0.35131097
-0.7715064
-0.5484002
-0.44076523
-0.4274974
2.549662
1.1731439
-7.259281
-2.5124469
2.0180657
0.16861379
0.132927
-0.088266924
0.16688928
0.01713401
-0.024431728
0.06774218
-0.025387246
-0.14354302
-0.06508057
0.10949531
0.009258818
0.004862354
0.24508454
0.1478014
-0.18245569
0.3213761
-0.62532747
0.05130312
0.34732747
0.31579837
-0.0681134
-2.0376246
0.6952279
0.208454
0.63608885
-0.24206084
-0.489818
0.2785926
0.99503875
0.7891998
0.052463472
-0.67746025
-0.7262592
-0.55704695
0.2069822
0.5914865
1.9830633
0.46712312
-2.1098619
0.2822544
-0.573807
-1.7996142
-0.8569854
-0.50047433
-1.1562523
1.1223063
-2.3939388
-2.5711136
1.3392076
-1.9844108
1.8903286
-2.5222273
-0.2397115
-0.55199116
0.7888051
-0.20387688
-0.12688547
-1.3202673
-0.8284357
2.0020463
-3.1879818
-1.0421319
1.2159848
0.6058679
0.3029615
-0.44549575
0.08110931
0.53130865
-0.013871118
0.18125619
-0.057961665
-0.09508805
0.07332392
-0.0136767905
-0.2362439
0.062136278
0.04533623
0.05381681
-0.058503993
-0.07115799
-0.39174765
-0.63136184
0.11225161
-0.39809647
0.6805984
-0.4314239
0.7156952
0.57128614
-1.0414467
0.6483083
-0.5121497
1.2455348
-0.059928708
0.11350244
-0.29732734
-0.39628094
0.7151575
0.22244108
-0.25874785
-0.02782401
1.7498713
0.6234971
0.7549857
0.44373935
0.06143949
0.003193494
-0.48120165
-0.13771302
0.15553606
0.14531824
-0.22039378
-0.5639907
0.75139993
-0.5795555
-1.7623637
0.47957867
-1.4826821
1.0447814
-0.07172425
-0.25825936
0.58942443
-0.76697433
-0.23422486
-0.53352946
0.9741772
-0.2996434
-0.095419884
-0.015799541
0.07966542
0.15016688
-0.1416192
-0.024340238
-0.2633153
0.30270177
0.26989183
-0.08340867
0.2283165
-0.22775376
0.37007833
-0.03290969
0.44350234
-0.030993868
-0.2016274
-0.00825458
0.0060606226
0.08051041
0.60233986
0.1239741
-0.36051315
0.43325055
-0.315347
-0.3563346
-0.27480862
-0.19275926
0.9574102
-0.39732268
-1.219447
0.16264887
-0.39243892
-0.34235403
-0.77298653
-0.3426499
0.33759353
0.009638831
-0.2983289
3.0699534
0.9861529
-1.1935095
0.19056134
-0.62236476
-0.13569456
-0.35480812
-0.9186175
-0.3084858
-0.10111108
0.0029075593
0.1708456
0.30258507
0.20876446
-1.1343333
1.848537
0.34440842
0.08043814
-1.0996674
-1.3820059
0.066396445
-0.7509896
2.5046704
-0.20939946
0.48265958
5.2563834
-0.10322627
-0.09352453
0.05418092
0.16819361
0.25300863
-0.30178234
0.21282649
0.4463972
-0.010366924
0.26332
0.028215274
-1.1421424
-0.122133255
0.34136832
-0.021074265
0.13944617
0.29815388
-0.317969
-0.9672464
0.49805307
-0.45099133
-0.69761497
-0.40189362
-0.5156936
1.1544323
-0.3315984
1.5543634
0.92943454
-0.03546226
0.7463108
0.7460301
0.5715648
0.120785534
1.8063552
0.18547928
-0.3248184
-0.6224404
0.045130923
0.8004408
1.3337342
-1.5510392
0.08508989
-0.13183172
-1.0111674
-0.57417876
-0.1839333
-0.94631433
4.423814
-0.47009218
0.24614845
0.07267484
-2.51104
1.0886742
-1.0590546
0.4015829
0.28012887
0.84044826
1.262156
-0.40415198
0.52724326
-0.7224337
0.92239624
-1.6786509
1.5486648
-0.20857206
0.28267664
-0.011175044
0.47553828
-0.19079843
0.9238953
0.23554182
-0.37059426
-0.48984605
0.6727528
0.032115832
-0.27041948
-0.5596966
0.0061993226
-0.60147494
-1.3394816
-0.179066
-0.051263317
-0.3932369
0.993894
-0.05477968
-1.3215313
0.44552073
0.026738882
-1.4395902
0.14806026
-0.3680753
0.18052238
-1.0552194
0.8614272
1.8391906
0.017514467
0.42567882
-1.3071134
-1.9940429
0.7403957
-0.50327855
-0.4841775
5.209718
-2.0288408
0.22626595
-0.7356839
1.7216325
-0.49167612
1.9232589
-0.47827545
-0.9525706
0.30557996
0.4493903
-1.0730684
-0.54472125
-0.40722638
-1.3030725
1.1932555
0.5406662
-1.6463072
-0.5442313
-1.2763065
1.2569332
-2.138329
5.1914306
-1.0009263
1.2798485
3.4234192
0.19463284
0.4610584
-0.2893027
-0.00792975
0.045194257
0.26224333
-0.067486145
-0.5473368
-0.16947809
-0.55683607
-0.5588728
0.8002989
-0.25258094
-1.475859
0.70396805
1.1394472
-0.8825479
0.12876764
-0.16638967
-0.27025414
0.33572388
-0.18436605
-0.7677583
1.1785756
2.5242538
-1.5948098
0.60617155
1.8571017
1.3410594
0.25060606
1.4416478
0.913205
0.5608163
1.747693
-0.5424882
-0.13060851
0.31741574
0.7595006
0.9026648
1.0738972
-0.49010104
0.5893594
0.7072142
0.04182919
0.3585909
0.040076874
0.43983328
-0.08415358
0.3159725
0.46861327
-0.40488473
-1.0962424
0.26696742
0.033414006
-1.0631268
-0.43899536
0.51924807
0.26323456
0.0964418
-0.16179505
-0.013141006
-0.3750374
-1.4228078
0.0014709756
0.034309234
-0.18510602
-0.0105009
0.6083909
0.25590557
0.48515564
-0.24520311
-0.64862454
-0.8162112
0.6665623
-0.19709715
-0.40052158
-0.5178056
1.0495522
1.0555011
-1.3302282
-0.71599525
-0.37080553
-1.3534379
0.5282395
-2.471538
-0.9396652
0.09301132
-0.65494794
-1.7483937
0.08007824
-0.07229417
-0.34779975
0.54720205
-0.35094994
4.5951443
-0.90364826
0.22021903
-0.52400297
-0.4057346
0.18823764
-0.2641372
0.45134717
6.883329
0.9766889
-0.4442762
0.17955714
-0.7802275
0.06806904
-0.16904348
-0.1877819
0.40047988
0.04788041
0.42876208
-0.035987414
0.37058297
-0.09888692
0.03553278
0.07953771
0.30247432
0.14445308
-0.34617847
-0.02082114
-0.14027748
0.18915041
3.6539843
0.21661064
-0.02644734
4.164679
0.36809123
-0.15996882
-0.11374115
0.5754191
0.5779841
-0.37863517
-0.2183623
-0.053641584
0.4017466
0.26525474
-0.42638692
-0.34382337
0.32040697
0.05908158
0.12984183
0.23159961
-1.022563
-0.07858858
-0.8065617
-0.065008245
-0.44816136
-0.69140834
-0.61074317
1.8436638
-0.25481695
-0.21942358
0.5822921
0.30831137
0.8386936
-0.7389354
1.1063144
0.07904225
1.0803514
-0.448018
-1.5829859
-0.07184331
-0.6311436
2.0698576
0.82100797
1.7448367
-1.1956683
-0.25657427
-0.4596278
-0.9905307
0.626626
-1.874577
-0.3112165
2.5319347
0.18624225
-0.36265844
0.7570776
-1.8453228
0.6374163
-1.9489211
0.662015
-0.61272043
-0.5024964
0.9115503
-1.4164425
0.03837204
0.18148912
1.3695703
-0.6506541
0.13588724
-0.28534514
-0.54524684
0.16300105
0.23625806
0.20895869
-0.42077667
-0.58121413
0.24412052
-0.5415352
0.8900107
0.5830026
0.012603581
-0.6758745
0.8146854
-0.15098438
-0.9282186
0.14865497
-0.19655813
0.3899714
0.38167217
-0.35133952
-1.595715
1.9856586
0.32654542
-1.0642585
-0.062264502
-0.81819046
0.37430704
-0.46099463
0.16838358
1.0276041
0.27812743
-0.32959515
-1.3609746
-1.0874819
0.38937134
-0.90818954
0.09686626
3.6235018
0.7330263
-1.5576472
-0.30225268
0.52236855
-0.0029007345
2.3244193
-1.1854272
-1.0569669
-0.8461187
0.22916286
-0.43077323
-0.3615966
-0.23346992
-1.2681464
1.4540019
0.3877649
0.4938608
-1.283598
-1.4278431
1.3422537
-1.4983729
5.086086
0.1414837
1.1353569
4.0808797
