0.0130787855
0.03800638
-0.06369609
0.05335354
0.004078714
-0.027255282
0.019039396
-0.052312374
-0.004032286
-0.0473473
0.009307945
0.027803093
-0.05286374
0.01424635
0.02394503
-0.031826604
-0.0016482882
-0.030033004
-0.018058736
0.032060795
0.0012449613
0.04536108
0.013608318
-0.03560299
-0.054753773
-0.00835225
0.045799896
0.03907177
0.041005872
0.0052181305
-0.026393479
0.016338237
-0.044076916
0.023256678
0.030826028
-0.0051937336
0.011195943
0.07655052
-0.00538731
-0.02000771
-0.003422699
-0.017491944
-0.023579078
-0.029882405
0.017243663
-0.0022882468
0.02179392
0.029795721
-0.017121952
-0.0045860102
-0.04422925
-0.05663214
-0.027426526
-0.012311956
0.023174921
-0.0041013085
0.051988974
-0.014572715
0.013603502
-0.0014129048
-0.038484402
-0.03477949
0.016589273
0.037899025
0.0027707382
-0.00058100093
-0.033283968
0.004749815
0.016820125
0.03194979
-0.0064455913
-0.022746583
-0.009617533
0.03002472
0.049614586
-0.017553475
-0.038013563
-0.0055105495
-0.036017943
-0.047513984
-0.023125121
0.0006663697
-0.007018119
0.0045578866
0.017270586
-0.032096487
-0.004702138
0.015338957
0.03538881
-0.03982045
-0.020946665
0.048183486
-0.010074254
0.010412991
0.030473325
-0.04524365
0.00081660796
0.0049424
-0.01575292
0.0061740177
-0.04342842
-0.03951873
-0.0018036495
0.00059067854
-0.018135494
0.07078285
0.0013532629
-0.02480069
-0.053238552
-0.0027542547
0.013766752
-0.03516366
-0.0452977
-0.01870852
0.01730406
0.02017107
0.032050297
0.060370862
0.04040683
0.038883887
-0.044265363
0.021350687
0.052584756
-0.009719759
0.0031977957
0.013648204
0.030110111
-0.008190632
-0.042126574
-0.0035285428
-0.040708058
0.022520732
0.02544309
-0.023740385
-0.006700863
0.039650936
0.013925612
0.0054789754
-0.0004903837
0.034794003
0.012114003
0.022924844
-0.023889132
-0.024404872
0.030876331
0.06310885
-0.011197145
0.007898695
-0.00966351
-0.011960006
-0.024645252
-0.019516665
0.021384891
-0.015949795
0.015388632
0.042058654
-0.019853894
0.008003128
-0.008493729
0.030325264
0.024311475
-0.015916191
-0.004397813
-0.015652344
0.04057454
0.031768546
0.0010566437
0.00484249
0.036188222
0.036295623
0.06781666
-0.029973757
-0.057489913
-0.007323299
-0.023751833
0.02961209
-0.033703454
-0.044905428
0.032171242
-0.029297736
0.060206063
0.033517808
-0.035268404
-0.03844881
0.004450015
-0.02316426
0.047024053
-0.00092228176
0.011470601
-0.057538655
0.00018067937
-0.018255435
0.064702205
-0.0045540724
0.0034967726
0.01902406
-0.0009033228
0.106910765
0.025808306
-0.011713623
-0.021509744
0.021537792
-0.010606917
-0.0023984294
0.006253349
-0.013605568
-0.010289747
0.0095436955
0.023505088
-0.018685505
-0.043938935
0.07903026
0.00087719294
0.015749624
0.017839676
0.009023013
0.00072274916
0.058557972
0.00571757
0.026522845
-0.015175228
-0.034692794
-0.07140644
-0.027622007
-0.023931932
0.03496313
-0.010854352
-0.018101621
-0.0093849
-0.028385304
-0.002219609
-0.042263553
-0.0021442734
-0.0057189306
0.0019642133
-0.048178345
0.027469622
0.015827287
-0.016697174
-0.013206832
0.028254192
0.002254189
-0.031114995
0.010677966
-0.07537539
-4.6005473e-05
-0.004085992
-0.03774368
0.019781489
0.045711227
0.0077230437
0.008898446
0.06513176
-0.025695058
-0.004463235
-0.017768564
-0.01941315
-0.047225133
0.024230212
-0.043810956
0.04888746
0.0114964675
0.03281017
0.016794953
0.02362495
0.03232849
-0.026143327
0.035526555
-0.002017418
-0.015913427
-0.030719252
-0.04941587
0.018042265
-0.019881027
-0.017799463
-0.0055101765
0.018179415
-0.012962776
-0.009313311
-0.008663749
-0.0031142866
-0.036230955
0.03785771
0.0064457646
-0.07276236
-0.01640629
-0.03752844
-0.030946333
0.042932592
-0.027788363
-0.00021192245
-0.062723845
-0.013261917
-0.043555424
0.05199798
0.015514019
0.047579404
0.00016527949
-0.06730656
-0.04258324
-0.01658082
-0.0036037643
-0.010724543
-0.03654986
-0.015793633
0.026791403
0.016271193
-0.025590403
-0.01199326
-0.010035526
-0.018104298
-0.0089833
-0.030415408
0.028650476
0.003440673
-0.004461939
-0.028924316
-0.013721522
-0.011747622
-0.019904457
-0.0074287495
-0.009972118
0.032846466
0.0063093235
0.0033719977
0.0091745015
-0.030390738
-0.020475423
0.046872616
0.041314222
-0.030777989
-0.024729952
0.038573314
-7.527624e-05
0.0063536987
-0.04031118
0.027146935
0.03885844
-0.008827658
0.011408955
-0.046562396
-0.032409564
0.045088723
-0.03972926
-0.0085331425
-0.03357717
0.029815458
0.027969418
0.057099357
-0.008666928
0.04406034
0.016845558
-0.034009106
0.05443242
0.034946445
-0.0019763755
-0.042186044
-0.034083698
0.023532461
-0.031754747
0.005585833
-0.024650577
-0.0031652465
0.044428915
0.021703709
0.013897747
0.015930463
0.008822538
0.004545275
-0.033878133
-0.011059971
-0.018703705
0.02530486
0.05715344
0.00075686537
-0.014915914
-0.09026984
0.018967245
-0.0205546
0.012536844
0.014067494
-0.011846008
-0.034608644
-0.034853153
-0.031383872
0.009975876
0.044318937
0.0017786622
0.0044097053
0.022211092
-0.02060243
0.031495426
0.025390273
-0.016631275
0.012720401
0.06166902
-0.010554046
-0.02788539
0.009803613
-0.011757569
-0.00034899358
-0.02752421
0.03137275
0.062551655
0.027839944
-0.017698193
-0.007541584
0.024621949
0.051041592
-0.010899354
-0.008350759
-0.008546349
0.057531413
0.0014241552
-0.0024477737
-0.03661461
-0.006737332
0.016849615
-0.022582708
-0.0037260028
0.029769171
-0.010868963
-0.032757442
-0.024071863
-0.01000173
0.031976707
-0.010283987
0.005038469
0.059471507
0.00919459
0.00064883847
-0.010051902
0.02050338
-0.017471593
0.008466464
-0.053415544
-0.01153199
-0.00037311483
-0.033311248
-0.012877208
0.047315482
0.0018922398
0.043331303
-0.049351774
-0.0010560965
0.0052451324
1.9555446e-05
0.054169588
-0.03674138
0.0300394
-0.04125634
-0.022910211
0.011166429
0.0075949384
0.0064703897
0.033251833
-0.004181294
0.01628101
0.0376754
0.055923536
-0.025295846
-0.048119366
-0.093969256
-0.018459063
-0.013533519
0.02564144
0.023332044
-0.08476842
0.002889954
-0.06560839
0.019571979
0.0013454268
-0.015138634
-0.05235976
-0.046621293
0.017487394
-0.03486132
0.044557735
-0.023042701
0.04075246
0.025848802
-0.010682058
-0.0065563563
0.013755592
0.015275158
0.007878592
-0.023074206
-0.035842065
0.028596807
-0.06813086
0.0033968855
-0.007193899
-0.018144323
-0.026610818
-0.018084347
0.022928365
0.057021927
-0.06568602
0.0480941
-0.03799
-0.018866248
0.005083549
0.037277844
0.0084651625
0.038359027
-0.016497202
-0.0074438006
-0.0033417782
0.020998526
0.016935831
0.02782235
-0.0062779943
-0.00904126
0.043909498
0.024765568
-0.040921032
-0.027481187
0.06513668
-0.012203651
-0.033816252
0.051649507
-0.036315728
0.01671476
0.041944344
-0.0018511193
0.033047527
-0.008540718
-0.006192687
-0.002086516
0.0075769546
-0.002442046
-0.019468635
-0.011541235
-0.0018309532
-0.011048323
0.0063926578
-0.053236283
-0.013947392
0.037476234
-0.04101674
0.023760302
0.020709543
0.029230516
-0.027679322
0.025857441
0.020740306
-0.0023067468
0.016358184
0.0022988105
0.020761713
0.011317752
0.006915974
-0.004432594
0.0041296817
0.01683097
0.0019718334
0.016035229
0.037138008
0.007108705
0.027665209
-0.026851319
-0.008935628
0.01492805
0.018853392
0.012740448
-0.020288814
-0.0031032022
0.026004028
-0.010832572
0.03328829
-0.019153109
0.03291119
-0.004254471
0.022666447
-0.023129277
-0.0034327405
-0.03677584
0.036611002
-0.02457813
-0.021992136
-0.044166297
0.0013571563
-0.056305744
0.032591432
0.06874903
-0.028695825
0.013312658
-0.022369973
0.012157955
0.0566663
0.031905852
-0.00046732184
0.012975527
-0.029168006
0.025629362
0.07347309
-0.007547171
0.019729722
-0.004026857
0.013332539
-0.01528872
-0.06122442
-0.0040814476
0.013475468
-0.023116756
-0.01591521
0.01995102
0.011063548
0.01626125
-0.024183111
-0.011668825
0.039119065
-0.010171356
-0.03484019
0.030776383
-0.0032836355
0.007281404
0.0029424867
0.021152142
0.007841319
0.008659929
0.039581098
-0.013075579
-0.0019008121
-0.017620374
0.046531647
0.01922889
0.033635695
-0.050535157
0.016908333
-0.0028962875
0.00036847964
-0.06612361
0.008931749
-0.00680047
0.0028385455
0.09795693
-0.06138468
-0.024534581
0.000112172216
0.01352436
-0.03568691
-0.047361724
-0.026267266
-0.006843279
0.005161859
0.0065253763
-0.012923412
-0.039702147
-0.02247817
0.017425502
0.01664717
-0.0055428166
0.07269056
-0.008234251
0.013999905
-0.011759775
-0.06518678
0.0048628394
-0.047773115
-0.06590525
0.019867739
0.0044502323
0.030326597
0.013179345
0.030142656
0.019504149
-0.026725046
-0.016592588
-0.043172408
-0.03879285
-0.02780597
-0.0065621324
-0.013732513
0.054136332
0.034256503
-0.0062749563
-0.038927794
0.07136762
-0.038137734
-0.023086084
-0.043279067
-0.018000629
0.004046024
0.02453221
-0.015219298
-0.03222101
-0.013438369
-0.0209774
0.024560263
0.04294248
0.0067526996
-0.021380916
-0.03404861
-0.0057862736
0.02486591
-0.03610574
-0.036637317
-0.042129636
-0.004942847
0.016434275
-0.011105726
-0.023717633
0.009570034
-0.020964453
-0.034667272
-0.008580169
0.003032667
0.021802733
0.005246821
-0.0071177566
0.00092113856
0.015598917
-0.023742594
0.017386569
0.03525812
0.004334487
0.012402775
-0.023026954
0.034940112
-0.046425313
-0.027932845
-0.021474563
0.04121033
-0.0014504767
0.013110306
0.0015786764
-0.035628855
-0.050368145
0.043501318
-0.031919885
0.023540754
0.030639486
-0.048341982
0.025123501
0.039100416
-0.018211767
0.037209157
0.019320685
0.003217508
-0.032159183
-0.011079235
0.035511658
0.018208947
0.008833208
-0.051787168
-0.0034830011
0.07534841
-0.017721971
0.01711152
0.037810445
0.0603604
-0.009141352
-0.017149333
-0.023989083
0.0050040493
0.039478455
-0.028011974
-0.01584982
-0.039077476
0.017672878
0.021676555
0.024900613
-0.0045553437
0.04225827
-0.008726112
-0.015146536
-0.030761503
0.016078096
-0.0065096254
0.0069696195
-0.0010386142
-0.05521795
-0.008439039
-0.00567476
0.013495517
-0.015253836
0.017978301
-0.03027856
-0.033091627
-0.020447465
0.040796764
-0.005505193
-0.050298665
0.022729903
0.0140988
0.0015601614
0.0049846573
-0.020806836
0.033053845
-0.015505212
-0.0053003253
-0.04024745
-0.004278112
-0.031968843
0.0035987897
0.047328744
0.00522305
0.06976593
-0.008828723
0.012965446
0.033682995
-0.05216449
0.000877331
-0.0026395577
0.09574702
0.02496951
-0.013679695
0.08295528
-0.02761675
0.025875697
0.032457575
-0.011861821
0.0042475304
0.019895077
0.0076680426
0.009073549
-0.012050084
-0.02633915
0.03765976
-0.0049699717
-0.0016231984
-0.009426529
0.015516378
0.017112674
0.028596085
0.0135902455
-0.010264045
0.010870885
0.0009047589
-0.027819756
0.012767848
0.011753885
0.072919674
-0.030287145
-0.0013247869
0.017515998
0.0013098428
0.002650003
0.024523579
-0.0021844986
-0.0020621018
0.030234411
-0.03349538
-0.059636593
0.008641691
-0.02535459
-0.023612581
-0.017164491
0.044509493
-0.011125509
0.026359163
-0.008198075
-0.0059548635
-0.018561706
-0.004731183
0.009832501
0.0211177
-0.028134922
0.003036075
0.0545697
0.02527735
0.012597828
0.07259935
-0.0063651167
0.016969861
-0.041862406
0.019806713
-0.019566262
-0.0169368
0.04328291
-0.029652134
0.043800272
0.016495615
0.076565705
0.014240292
0.0227582
0.011330154
0.027116492
-0.05860262
0.05681289
0.002957509
-0.016350847
0.0027678765
0.000102829654
0.00092646293
0.023218954
-0.028234355
0.009030979
0.01840451
0.043530323
-0.008360093
0.035852544
-0.065893
-0.0076622954
0.003977853
0.027687002
-0.060835894
0.021661596
0.019228311
0.021724144
0.006560392
0.02289657
-0.0010255259
0.0070942994
0.013609933
0.047580678
0.054679137
-0.021649083
0.035940487
0.000587055
-0.0009547434
0.05358642
-0.016338393
-0.00033265562
0.040388454
0.039516665
-0.009791885
0.051346466
0.060015697
0.06826574
0.004312803
0.026455782
-0.033029098
-0.041194074
0.079124644
0.00821932
-0.02353591
-0.013229152
0.02434319
-0.035644595
0.012445035
-0.045668025
-0.053508546
0.06277332
0.036302604
0.012334674
-0.014393498
0.008285275
-0.031277977
-0.018733967
-0.045284092
-0.037495993
-0.011815155
-0.027004559
-0.05928787
-0.0064571686
-0.0053805136
-0.024881426
-0.035531506
0.019110495
0.019089248
0.0018878323
0.027617225
-0.037781794
-0.018400095
-0.014545649
0.041375935
-0.03265849
0.019377159
-0.0067148395
-0.021612965
0.037864614
-0.0075433785
-0.00014970847
0.0032751027
-0.039958872
-0.017513845
-0.024017371
-0.053037886
-0.004954184
-0.02411893
0.034307037
-0.0067792516
0.015966728
-0.03251436
0.002643153
0.077010356
0.02483303
0.039582387
-0.01823907
-0.0071233
0.0015371544
-0.031797186
0.0033977993
0.010382736
-0.013892287
-0.024989609
-0.009876835
-0.0066496907
-0.029694451
-0.030943561
0.0016183928
-0.016036129
0.033844095
-0.034127057
-0.010514521
-0.0018662672
-0.01377265
0.0023926357
-0.017239328
-0.026003113
0.006833115
0.020368889
0.061607163
0.055421397
0.012735738
-0.014980142
0.015836831
0.028952215
-0.011878435
-0.0040089665
0.040198945
0.0027822051
-0.06041513
0.001418354
-0.020055518
-0.013447899
0.00011387665
-0.020711794
0.029046528
0.035101313
-0.050677244
-0.01832978
0.021987425
-0.015628282
0.026545424
-0.007875457
-0.03800404
-0.043668903
0.04145968
0.028411202
-0.016320756
0.054417644
-0.008494467
-0.020020343
0.02765892
-0.0022200476
0.012204421
-0.005237736
0.03547195
0.058120653
0.060680464
0.010085712
0.03547649
-0.012245849
0.06117107
-0.036275294
0.016490076
-0.0010344703
0.005635906
-0.02206757
0.0109601505
0.000655361
0.029888159
0.024398834
-0.04467585
0.034680985
0.008494857
-0.020836888
-0.006017496
0.06673141
0.04498643
0.026978599
0.016130667
-0.016588716
2.4659093e-05
-0.015311141
0.026213666
-0.034129333
0.0060450453
-0.02174733
0.0026684203
-0.00689527
-0.0311101
0.026085198
0.031771865
0.04153115
0.012819003
0.017825752
0.05089408
0.0033814493
0.026413947
0.038033467
0.015222152
0.015014696
0.008062539
0.03281333
0.06706705
0.010024911
-0.024034962
0.041208006
0.04000124
0.0077965744
0.063703805
0.013499182
0.0114260055
0.026891977
0.045302063
-0.096763805
0.02838802
-0.0855335
-0.015036628
0.0035979915
0.010983389
-0.0137090655
-0.02656418
0.046315063
-0.022240128
-0.027896225
-0.022452075
-0.019838482
-0.011174013
0.017420731
-0.018773865
-0.048426792
0.010442626
0.056975618
0.02921772
0.02833225
0.0035825307
-0.026926279
0.0016626581
0.015522314
0.048971783
0.0051464043
-0.04990085
0.0041194037
0.021812655
-0.03455663
-0.01707824
0.028016891
-0.027997397
-0.0056817895
0.027019424
0.030105297
-0.0011759307
-0.006150447
-0.03563367
-0.0067802365
-0.038693067
-0.019255765
0.007129514
0.018123168
-0.031553525
-0.021177614
0.004972115
0.008446461
-0.022160266
0.0035724984
-0.01017223
-0.02285329
0.0023558969
-0.01842527
-0.015181376
-0.009261293
0.022854365
-0.0099640135
0.02897124
0.015032695
-0.011578431
0.04628659
0.034737546
-0.016186459
0.018970545
0.018818233
-0.015516481
0.034768872
-0.005116487
0.013803465
-0.008519141
-0.03129013
0.02763499
-0.019159447
0.03379008
-0.03606948
0.062081844
0.024063163
-0.0036040433
-0.028940089
0.01611745
-0.013195581
-0.045518555
-0.020281598
0.002113665
0.024149831
0.04038088
-0.02051501
-0.08510625
0.020549754
-0.003773922
-0.038584463
-0.00940056
-0.041390155
0.03465275
-0.018633094
-0.01685857
0.016388059
-0.018980991
-0.008672521
0.020782907
0.020209301
0.014766342
-0.0353238
0.044361718
0.044978358
-0.07106026
-0.015569102
0.023153178
-0.01827378
0.021637123
-0.050144672
-0.051217012
-0.0011010561
-0.027636845
-0.00033559743
0.037262995
0.020060495
0.04471376
-0.0009707345
0.002246634
-0.050060257
-0.03177941
0.03935699
-0.02186194
0.0143403765
0.04517134
0.054595575
0.05587924
0.031315632
-0.028342325
-0.0024371129
-0.012761286
-0.0021106508
-0.033173796
-0.03640524
0.03740015
-0.0001976036
0.027797269
0.005429593
-0.061288565
-0.004234511
0.04399565
0.06750585
-0.0065222015
-0.05226402
0.0018747223
-0.004879085
-0.029703526
-0.008626213
0.06546102
0.04810977
-0.035884574
-0.0038077794
0.0012020441
0.0052760504
-0.029172417
0.0016383929
-0.034435622
-0.0069239875
0.037539706
-0.0511164
-0.0021523326
-0.020139845
0.04000697
0.014258256
0.04978591
0.005999775
-0.0016351175
0.04467073
-0.01796285
0.022307169
0.01929171
-0.009877137
-0.019557593
0.009189116
0.0062434063
0.041568525
0.007570574
-0.01805373
-0.037078604
-0.0010666586
0.0068866564
0.0070481114
-0.03165226
0.020563733
0.022174362
-0.014621824
-0.0072066155
-0.009510769
-0.045744
-0.014097724
0.02004075
0.04071912
0.0207696
0.0017684889
-0.024590457
0.03147628
-0.0056098336
-0.030770037
0.04937677
0.015541159
0.0013088132
-0.014845789
0.0058836676
-0.0017245016
0.0023109624
0.027013427
-0.07654305
0.016225047
-0.044263832
0.015379295
-0.0149491
-0.053934205
-0.0042360798
-0.0035225225
0.029535886
0.030808723
-0.07876079
-0.02593282
-0.01433247
-0.013107238
0.01767849
0.0324779
-0.06307627
0.01163628
-0.030942136
-0.01597692
0.024864487
-0.0016109883
0.030392235
-0.0026426502
-0.030956335
0.019050423
-0.009567007
-0.02101995
-0.013471819
0.005597874
-0.0067593036
0.032559343
-0.021803277
-0.053641923
0.030268464
-0.0720918
-0.007128265
-0.0074604955
0.00747398
-0.0050424
-0.06098344
-0.011743051
-0.0066006063
-0.005952783
0.0031035019
0.026147284
-0.02756861
0.06824103
0.016693152
-0.020500135
0.008365749
0.0296183
-0.0066522695
0.013826389
0.0076367212
-0.022132277
0.017637853
0.0015400811
-0.012119321
-0.018004391
0.018776456
-0.022010818
0.016514873
0.033469785
0.00997303
0.00042435958
0.0029269224
-0.0042596553
0.016143302
-0.013744456
-0.06750728
-0.03485832
-0.026941769
-0.036820896
-0.03169952
0.021309882
-0.024457606
0.0030191196
-0.035601653
-0.013278943
-0.008257814
-0.0016933689
-6.0005113e-05
-0.05305219
0.029339451
-0.025975356
0.013393748
0.016500704
0.012661317
0.058233894
0.016324608
0.0012117535
-0.021429528
-0.06105204
0.0039322106
0.032985125
-0.037728112
0.0049821977
0.0014771577
-0.039628346
-0.013920711
0.0106574455
0.00920232
-0.015623637
0.029297346
0.045147143
0.022173842
-0.007291441
0.026732111
-0.0061534145
-0.033969242
-0.042759717
0.012890773
-0.06762795
0.020168286
0.047501534
-0.017058719
0.011794525
-0.010104947
0.0070456956
-0.0062971767
0.018909208
-0.011313332
0.0021893308
-0.05768639
0.020504333
0.035084154
0.028602656
-0.019538125
0.030153345
0.0142959
0.019948483
-0.0011123593
0.03441704
-0.0628268
-0.03703095
-0.01798421
-0.023364693
-0.04603848
0.01943781
-0.031859126
-0.06784264
0.024164569
-0.03806029
0.043985914
0.010480033
-0.051542826
0.014248706
0.05356161
-0.013588654
0.0350706
-0.003954282
-0.03795556
0.03348772
-0.017448623
0.05153101
0.017895438
-0.01498156
0.015397441
0.052538067
0.027291734
-0.02823477
-0.063143976
-0.031931214
-0.00019066833
0.006893811
0.021557352
-0.015359683
-0.027076565
0.032619312
0.005117256
0.0058242176
-0.043412603
0.020022461
0.006312828
0.03936699
0.0045001255
0.040848177
0.024607453
-0.00856552
-0.007485637
-0.016555494
-0.022796014
-0.03752562
-0.009307858
0.0008300878
-0.0139777865
0.008525901
0.006663883
0.09113198
-0.0063992725
-0.015306983
0.002320325
-0.009343322
-0.010164804
0.014568175
-0.031169765
-0.035960317
0.0055918926
-0.00039652642
0.010787019
0.02837801
-0.02855487
-0.002583873
0.033723958
-0.05870092
0.07451025
0.0072912327
-0.009190932
0.0488425
0.0054215556
0.014604239
-0.014391797
0.02492806
-0.019180505
-0.030591013
-0.006515385
0.017317545
0.018636908
0.017212838
0.008724695
-0.053403962
-0.013748957
0.0037785526
0.004710563
0.031190025
0.017043605
-0.048580732
-0.032496095
0.0014775773
-0.03392015
0.013510891
0.0041765566
-0.025138602
0.014374587
-0.0036305643
-0.061732665
-0.046074376
0.03821218
-0.051585946
0.052753538
-0.047278844
-0.00033484166
0.040502198
-0.009785717
-0.008268438
0.0036525372
-0.024546143
-0.018870544
-0.011540921
0.0037324084
0.0007966887
-0.016735036
0.0092853075
-0.0005972609
-0.022258064
0.026379056
-0.05807405
0.006906947
-0.022078978
0.014991796
-0.02467485
0.021843249
0.0051588397
0.03745537
0.020932153
-0.01365464
0.06981496
0.00045206957
0.027897196
0.0063116937
-0.023904823
-0.0021093597
0.009179119
-0.06009453
-0.020480726
0.013436043
0.018378334
-0.005967934
-0.073117584
-0.0023748502
0.006803094
0.018819276
0.013521099
0.014973641
0.01602536
-0.0057090167
-0.0059863813
0.0007108118
-0.008756495
0.03654917
-0.012981029
0.00029388163
-0.024661055
0.01129196
-0.005091509
0.0070836395
0.0017446838
0.010541017
0.039704345
0.032632746
-0.0027146582
0.00084276963
-0.060137413
-0.034492027
0.02612089
-0.011806997
0.017691262
0.018464744
-0.02327837
0.034184612
-0.02365466
-0.018206049
-0.009718269
0.051667333
0.012025142
-0.009606564
-0.008082915
-0.007263557
0.0059820344
0.002680582
0.039120525
-0.012983174
0.011197355
0.017721161
0.0037453426
0.022199184
0.0038330771
0.038663164
0.0012845243
0.0064147417
0.015255483
-0.005474464
0.016545977
-0.0018368999
0.01986973
0.012231123
0.02678248
-0.03510528
-0.016891941
-0.0073618935
0.014961414
0.015340336
0.01851108
-0.024587613
0.040933818
0.02803053
0.016833954
0.0018707293
0.031582262
0.025530335
-0.019623306
-0.009812443
-0.0048203347
0.005152375
-0.04651856
0.009215614
-0.028396048
0.0250576
0.043226615
0.07427651
0.01499491
0.017555414
0.011879672
0.0076824697
0.017156852
-0.010847421
0.07864886
-0.007019191
0.008189253
-0.033297375
-0.048768595
0.060931824
0.012715802
-0.027162854
0.01188552
-0.027348481
-0.033745643
-0.020247158
-0.0009930492
0.0038510351
-0.017637182
0.037614055
0.017255729
0.019297682
0.035027888
-0.028864186
0.011694934
0.0067786993
0.040786486
0.00345165
0.022852035
0.013263304
0.023972157
-0.016562738
-0.062436357
-0.0038308778
0.047325235
-0.030394059
-0.0077183973
-0.025830725
0.015288124
0.011517927
-0.012915656
0.0112736765
-0.019167263
-0.047359675
0.004742293
0.020750325
0.0049459026
0.024576586
-0.021608494
0.0013549132
0.04378544
0.02559748
0.018955192
0.023756502
-0.00413407
-0.026508199
0.04369063
0.031828903
-0.023498766
-0.005808561
0.0052145664
-0.008068847
-0.0012995042
-0.043894876
-0.031075642
-0.011509259
0.064023554
0.005578152
-0.06968132
-0.0071898196
-0.0022390848
0.009622676
-0.027473237
0.028127441
-0.012739573
-0.022291757
-0.0054516
-0.008917676
0.02691416
0.053697184
-0.067618996
0.042208508
0.015950665
-0.036232427
-0.07464984
-0.0034243115
-0.010055741
0.006080992
-0.039809387
0.0074781016
0.06827164
-0.0061940104
0.006962833
-0.0063787987
-0.053322412
-0.049650997
0.009386238
0.0024707224
0.020045765
-0.033694696
0.019690279
-0.03795992
0.0058935983
0.015121597
-0.0070349686
0.017485399
0.021250281
-0.024685126
0.006116475
-0.037936166
0.010120781
-0.0680942
-0.014066511
-0.013088523
0.023014978
0.06317449
0.011557956
-0.027889099
0.015671363
0.008764185
-0.03250537
0.04677304
0.018367488
0.021745486
-0.019321505
-0.02456088
0.0017522704
-0.044645745
0.03637337
-0.018813403
-0.010418561
-0.010897766
0.016631734
-0.01781527
-0.07341129
0.03137281
-0.0014068042
0.03628435
-0.002729605
0.05121951
0.020612402
0.0096908845
0.060290262
0.02342829
-0.026426371
0.04014302
-0.029387394
0.009762672
-0.013289239
-0.018697126
0.012284644
0.038087614
0.02284119
0.020126093
0.048353653
-0.012373867
0.0840853
0.046360467
0.020607367
0.025481854
0.00072399946
-0.010127781
-0.0064041503
0.044850312
0.02699265
0.05005948
-0.03197042
0.017795395
-0.0460379
0.017592426
0.03736405
0.032645166
-0.011255188
-0.012176397
0.008561469
0.0025633955
0.00073289126
-0.039264426
0.026125867
-0.041351043
0.016397754
0.024508424
-0.010733599
-0.029434862
0.014331445
0.005229383
0.024287617
-0.018411638
0.04114548
-0.016084075
0.0015065705
-0.036544643
0.0130174095
-0.004336156
-0.010060665
-0.0077001867
-0.003146748
-0.0034661766
-0.042969592
-0.007274559
-0.002699337
0.031116907
-0.031667583
0.048210647
-0.015799135
-0.004006396
-0.06250745
0.012138333
-0.001639451
0.026531331
0.014960647
0.022580918
-0.07280335
0.004910483
-0.0018730992
0.00073088845
-0.005150581
-0.03246871
-0.009915225
-0.05537229
0.035443604
-0.023424603
0.0076825097
-0.042362515
-9.8270364e-05
0.021665577
-0.0027071754
0.0038395892
-0.006137143
7.20527e-05
0.002240695
-0.0062633674
-0.009391583
0.0040260046
-0.007947251
-0.00059478986
0.003359408
0.037172794
0.00085715856
-0.026484955
-0.052566834
0.089622885
0.012660575
0.023595586
-0.05439456
-0.046199586
-0.033491544
0.01061623
0.047628287
0.021476157
0.035550226
0.025318488
0.013853711
-0.009586976
-0.030758113
-0.035753988
0.04422658
-0.027665898
-0.030077899
-0.027119357
0.0015312504
0.007530325
0.01868151
0.010379336
0.00213827
-0.020328764
-0.0054419
-0.021977758
0.029798925
-0.009939642
0.003791438
0.01846815
-0.02187727
0.017447881
-0.008877516
0.05170404
0.0039468636
-0.005366396
-0.0016316588
0.039952092
0.022462547
0.0063279495
-0.013330499
-0.03846251
-0.032101624
0.011804485
0.0021384885
-0.049221754
0.069834284
0.0027119033
0.037909873
0.04470814
-0.025556773
0.0016158912
-0.032076854
-0.004056921
-0.042016026
-0.013848633
0.09943305
0.039962485
-0.0055175098
0.026963985
0.047779307
-0.0022534113
-0.010649258
0.0701469
0.014615253
0.049116757
-0.042477604
0.043906547
-0.010761849
-0.06638704
0.040866427
-0.02834389
0.008397342
-0.017716043
0.037805602
-0.038553998
-0.0155556435
0.024911284
0.0018591881
-0.03365203
0.04076068
-0.020667665
-0.025817418
0.03323248
-0.023179898
-0.013006172
-0.038983457
0.015725583
-0.026038019
0.028664667
0.04941603
0.058081523
-0.0017920799
-0.00772606
0.010543154
0.014019276
0.028274108
0.011053563
-0.009219248
0.020858815
-0.03480157
0.0026373705
-0.03691133
-0.042833205
0.009560067
0.07979445
0.025921963
-0.032838907
-0.060617976
-0.01055636
0.0027614296
0.05278231
0.011381874
-0.015531849
0.016564779
-0.048047632
-0.010574511
0.04677261
-0.013517448
0.031217298
0.010517841
0.00997971
0.0044001704
0.035927303
0.000847158
0.02728193
0.0044548498
-0.0071435967
-0.043001905
-0.027850412
0.021741664
0.036959454
-0.011777483
-0.0012275912
0.0103545
0.0066486015
-0.033570345
-0.043511808
-0.009735143
0.039370816
-0.06393385
-0.017843407
-0.036216088
-0.014182466
-0.0039930297
0.0127827255
0.018389896
-0.013827274
-0.013793487
0.019586239
0.01317725
0.0025893198
-0.008309875
-0.027231842
0.014710767
-0.010253316
0.005537399
0.040352564
0.020808458
0.0022929045
0.0050946875
0.022294141
0.015616866
0.012063923
-0.0012097829
0.0018603308
0.005816059
0.03460312
-0.027118497
0.05803284
-0.023881137
0.004459305
-0.0019645733
0.0067290394
0.006604107
-0.024731029
0.020739602
0.0007830458
-0.029735742
-0.003164193
0.034111064
0.0076377187
-7.929094e-05
-0.04374765
-0.010049417
-0.004914702
0.010477608
0.0058816206
-0.025212355
0.078726865
-0.011514416
0.005311711
0.01170488
-0.023469241
-0.011519462
0.029039795
0.012922986
-0.022628382
0.02887393
0.0033658287
0.04756637
-0.011912063
-0.026584877
-0.0035701022
0.03910978
0.006031919
-0.0168921
-0.010668224
0.00035909936
-0.055598676
0.058639437
-0.011423385
0.009497263
0.049486034
-0.0091271475
-0.010533248
0.02494473
0.0022621956
0.026924111
0.002132365
0.022136748
0.0033785757
0.002344245
0.0046617556
0.029025702
0.0116657335
0.028603464
0.03450828
0.029831856
-0.00815873
0.044897303
0.035822287
0.06195627
0.030957242
0.025774917
0.032815713
0.00876426
-0.04672042
0.002251625
-0.015233031
-0.021504901
0.03314211
-0.0411951
-0.003517556
-0.010837629
0.029390289
-0.04436709
-0.021757485
0.0017284607
-0.028615912
-9.426987e-05
-0.0047853263
-0.03554356
-0.07329466
-0.0049547977
0.04386634
0.019769082
-0.032929007
-0.0010181125
0.017251914
0.029141001
0.018826991
0.019233357
-0.018618759
0.019035915
0.0016005896
0.05939374
0.014103372
0.037391324
-0.05538847
0.020991988
0.015279063
-0.022307837
0.008841331
0.0077364007
-0.003682986
0.0072889677
0.0007388722
-0.0073211947
-0.022596098
-0.001779493
0.0017561293
-0.015383406
-0.004941535
-0.032319978
0.0374103
-0.0072657233
-0.02425288
-0.0026386967
0.035066284
0.029659595
0.040046733
-0.010544001
-0.009885432
0.030374046
-0.040700857
-0.024479741
0.019611154
-0.032761298
0.0076590334
-0.039380454
0.010488249
-0.012463099
0.003799038
-0.019045398
-0.037677757
0.03535644
-0.031022936
0.014338971
-0.024465915
-0.01733229
-0.024707658
-0.0032343338
-0.00019072508
-0.0035802142
0.015547549
-0.023974225
0.0016196538
-0.03730104
-0.010409132
0.0137158055
0.03645298
-0.0045647305
-0.0027987682
-0.017127044
-0.02996276
-0.038472414
-0.051624
-0.012916919
-0.038170893
0.0026206947
0.0069090747
-0.0040475205
0.0122091845
0.051684335
-0.018949065
0.036286715
0.0055096904
-0.0038149143
-0.04530212
0.04636945
0.015692465
-0.018524002
0.050734237
0.0113201775
-0.00024040835
-0.012532543
0.018762747
-0.005538422
-0.0026877995
-0.014881454
0.0093341
0.018573765
-0.014138133
-0.02907511
0.066397786
0.032513704
-0.02487002
-0.0028581193
-0.030434515
0.0051935925
0.028008552
0.016545234
0.028893508
-0.050811134
0.0004654238
0.054392207
0.010308672
-0.074191645
0.0015709302
0.005217893
0.030843362
-0.01997071
0.006796414
0.046087865
0.06606153
0.06790195
-0.018180342
0.008285068
-0.029062035
0.009243984
-0.07002283
-0.008859724
0.053981856
-0.010780171
0.02432414
-0.009933194
-0.004957086
0.007200557
-0.020123597
0.05030454
-0.031572238
-0.009917937
-0.00031273626
-0.019052492
0.024812806
-0.020408327
-0.0038825956
0.036796857
-0.0018336009
-0.024239179
-0.019523885
0.031212827
-0.04928405
-0.005156062
0.039633982
-0.0184928
-0.00559269
0.010653415
0.0033470201
0.026624942
0.022353953
-0.0007344668
-0.0047279308
-0.00579533
-0.0008610096
-0.005187802
0.020554062
0.044601735
0.032170147
-0.026125193
0.014506901
-0.021886513
-0.0028478112
0.009961776
0.03432559
0.0063509243
-0.0109832045
0.023725407
-0.00810572
0.0053480864
-0.011277252
-0.009484433
0.0005956837
0.010576651
-0.002203546
-0.019753084
-0.013266844
-0.043141924
-0.053415813
0.03516653
-0.032585308
-0.017684491
0.049873978
0.03254439
-0.03804326
0.0014323057
0.029308978
-0.02885827
0.0579663
0.0061484384
-0.049935807
-0.020286877
0.03510414
0.025027614
0.008053498
-0.01640466
-0.043557897
-0.017737245
-0.007161694
0.034192033
-0.052606378
0.0279264
0.045783766
0.018681787
0.06005799
-0.01711431
-0.038421888
0.0035627931
0.03967033
-0.018871298
0.0036780993
0.0105080865
-0.017726114
0.022735972
0.012531747
0.021238457
0.008570812
0.023091147
0.0018366398
0.031156017
0.038372688
-0.022434812
-0.019321673
-0.008484265
-0.011380348
-0.015357398
-0.02173077
0.0029672403
-0.011240621
-0.06670558
0.016766278
-0.0010281596
0.015763843
0.033341844
0.04745013
0.029737672
-0.021516364
-0.04143816
0.0027148752
-0.0047906265
0.005317688
0.028898118
0.018649627
-0.04616493
-0.010779558
0.0212195
-0.044687912
0.0106651
0.022331716
-0.05300894
0.023972869
-0.00936416
-0.0071682422
-0.007655912
-0.02590571
-0.0085726725
-0.011235977
0.06699908
0.0123605495
-0.029930029
0.016561115
-0.018909983
-0.029357508
-0.043166764
0.014612608
0.010874927
-0.06235687
-0.019452767
-0.020655526
-0.0062519927
0.013141072
0.001741902
-0.018770203
-0.014740905
0.0063284617
0.0033255871
-0.004517119
-0.03624707
-0.040108442
-0.014666261
0.06618206
0.039610073
0.00882758
0.044575155
-0.009391322
0.04899024
-0.037274893
-0.025141485
-0.019098505
0.033784214
-0.04419838
0.0141203245
-0.0043617096
-0.011376426
0.01840394
-0.023758847
-0.026350107
-0.027961478
0.010907834
0.016354995
0.027177177
0.010270852
-0.012239582
0.03224322
-0.025786871
0.009362165
0.07616152
0.0018560052
-0.008959791
-0.0065220324
0.028138248
-0.026427176
-0.019699123
0.054122977
-0.016669596
0.005349905
-0.01897857
-0.023554627
-0.014427852
-0.022274816
0.028766211
0.04897787
0.025622915
-0.07721885
-0.04411501
-0.018784668
-0.0063214838
-0.017069664
-0.0056336876
0.021758642
0.007093425
-0.013037709
-0.0014671492
-0.029238623
-0.04736509
-0.05025842
0.016479686
-0.042858474
-0.004150903
0.037703287
0.016546903
-0.03360174
-0.066148125
0.037287038
0.0055482714
-0.028347323
-0.0025810516
-0.002215911
-0.03484609
-0.020793505
-0.02069089
0.021294102
-0.014390463
-0.053564746
0.040731013
0.009858835
0.0052934857
-0.0024076016
0.005978251
-0.038860384
0.03842931
-0.031601
0.03046673
-0.0063024224
0.0740944
0.005742782
0.0325384
-0.039641872
0.009520629
-0.027338304
-0.010478587
0.044550534
0.041220337
0.07354728
-0.016157435
0.0047128526
-0.033383604
0.010822726
0.04534726
0.0037370613
-0.004809968
0.0053761313
0.05184594
-0.0053968
-0.022280604
0.0008113575
-0.0224571
-0.00056843995
-0.02176746
-0.012003044
0.04849647
-0.0211402
0.03463059
-0.03533562
0.034365732
-0.04496445
0.029036708
-0.0018264297
-0.018852435
0.010394479
0.05801764
-0.01727612
-0.022101663
0.03590353
-0.016727917
-0.0045359237
0.02237574
-0.0024125872
-0.01379169
-0.015747625
0.02981233
0.03596857
0.026638333
-0.050779484
-0.010363643
0.006550474
-0.040942412
0.018426795
0.020439228
-0.045469712
-0.0055410787
-0.00027313665
-0.020743456
-0.028821317
-0.02506827
-0.0493707
0.0061482703
0.02506288
-0.0044953814
0.04085476
-0.016073989
0.026499255
0.009769461
-0.040385034
0.014449675
-0.016468594
0.014374544
-0.0024571598
0.03437511
0.022188336
0.019591743
0.015359597
0.0472202
-0.04130775
-0.008550938
-0.0011046795
0.00517824
0.003689603
-0.022687085
0.0318724
-0.032725442
0.029322142
0.05149557
-0.040114492
-0.02675863
-0.012329936
-0.052352548
-0.04611566
0.024404835
0.060475133
-0.037219957
0.03287463
0.03082327
-0.024425764
-0.023266017
0.026598342
-0.013283412
-0.010922124
0.010453567
0.053853188
-0.004709215
0.01091479
-0.04875671
0.017040754
-0.043030698
0.047858294
0.01000309
0.03285239
-0.0016352832
-0.031313896
-0.03745161
0.005143281
-0.042581186
0.029580452
-0.006245238
-0.019378342
-0.0017322383
-0.0022399821
0.017604824
-0.03671614
-0.00013756566
0.013066518
-0.0046028653
0.00011733384
-0.024661865
0.0138221495
0.0015077281
-0.019614816
-0.053452313
-1.6305246e-05
-0.035760313
-0.011090113
-0.018021401
0.008501593
0.0022758306
0.060823426
0.038109597
-0.044842787
0.04150946
0.05196592
-0.009180015
0.040064514
0.013101186
-0.003263093
0.0027756644
-0.013935564
-0.051384524
0.041608818
0.021572556
-0.009572279
-0.012640659
-0.005368946
0.034914292
-0.050092738
-0.0013813153
-5.5226963e-05
-0.08694931
0.014679281
0.009594447
0.03218376
0.030708017
0.020437494
-0.04994601
0.038720034
-0.010395729
0.020184344
0.02624103
0.029456688
-0.024181766
0.010264072
0.0057289046
-0.027979873
-0.026359033
-0.00114018
0.061134018
0.008332811
-0.02301827
-0.0095206
0.009432953
0.006946693
0.0032188944
-0.008221402
0.057371244
0.018923659
0.08276118
0.0050097117
-0.019320114
0.03148852
-0.003067555
-0.030784095
0.010892901
-0.034124736
-0.05372956
-0.0081960205
0.037875235
-0.022543533
0.019248694
-0.081551775
0.0067871492
-0.023312837
-0.002409157
0.03157237
0.013947882
-0.032801792
0.05488241
-0.048583873
-0.0047058184
0.037472643
0.050478183
0.010135759
-0.05581943
0.070206225
0.027464118
-0.020012867
-0.03687045
-0.012548876
-0.019195057
-0.009195572
-0.012321327
0.039909326
0.022736426
0.009059709
-0.0045175767
-0.0004226258
0.026386427
0.004726725
0.008852812
0.062284544
-0.05538851
-0.033198103
0.012795932
-0.007290724
0.00020653778
0.027334291
0.023159605
-0.0005618762
-0.04630101
0.0013283975
-0.0051417076
-0.054801695
-0.056819573
-0.040584534
-0.025324464
0.027858386
0.026827047
-0.043855675
0.07047103
-0.011970461
-0.0672718
0.0044922237
-0.0034049172
0.035311688
0.0058662584
-0.043986037
0.03549737
0.004934077
0.03179195
-0.0040216343
-0.028682467
0.0135139655
0.0200273
-0.008071536
-0.026232671
0.0150362775
-0.03341867
-0.024005486
0.043469816
-0.045676183
-0.014087778
0.002290877
-0.042320553
-0.01897963
0.02943614
-0.02722562
-0.008946866
-0.015302738
-0.031633202
0.004695167
-0.0211423
-0.0029346747
0.022901086
-0.058891032
0.0061621354
0.0043943897
-0.0033318037
0.071359724
0.017958682
0.007194328
0.005077894
0.029287977
-0.02678372
0.0007161652
-0.042746395
-0.0018270293
-0.03382229
-0.0064006215
0.009723612
0.010357972
-0.0271818
0.05152197
0.011938289
0.01155619
-0.033047028
-0.020761436
0.022887986
-0.014223663
0.01806701
-0.0002658153
0.0085499585
0.002221364
-0.016694501
0.024663614
0.012814108
0.010672651
0.03804487
0.02599349
0.009774206
-0.026942912
-0.031857293
0.04715013
0.031315338
0.014363944
-0.013940085
-0.0024572501
0.025829058
-0.029367954
-0.0030632531
-0.02790765
0.015712343
0.028940987
0.03389332
0.0026786872
0.006297034
0.023005702
-0.039741583
-0.01355063
-0.025722736
0.028907966
-0.0024244585
-0.037507128
0.038821377
-0.025169728
0.0039949073
0.028923513
-0.04570059
-0.00657449
-0.04455708
0.051117253
0.009594574
-0.012864213
0.009728226
0.0069414857
-0.0050050123
-0.06430119
-0.0075541376
0.06207178
0.036594
-0.03172887
0.013357511
0.052103516
0.0139652835
0.03714319
-0.084398165
-0.034262132
0.024203997
0.0065842727
-0.046554245
0.034435146
0.013782274
-0.03556233
-0.04002998
-0.03344391
0.021193994
-0.0021564174
-0.07963584
-0.028466672
-0.04944247
-0.030041372
-0.0028712829
-0.02661838
-0.05611003
0.007830666
0.01435598
-0.033759024
0.011242399
0.02426385
0.05857133
0.04860338
0.026862701
-0.03295834
-0.00047003105
0.025174266
-0.0137081
0.030380614
0.027741892
0.024418062
0.028065408
0.056989014
-0.011758876
-0.04894152
0.012909027
-0.030491777
-0.011174844
0.0037338817
-0.022919193
0.00839949
0.0015600547
0.009817307
0.041692913
-0.017778557
0.0018176065
-0.013874586
0.015939241
0.0062806867
0.024966663
0.0025698766
-0.020815259
0.024116848
-0.0036304363
0.04484934
-0.017466847
-0.018744234
-0.015499564
0.016155792
0.054405343
0.007438577
0.003359549
-0.0020159883
-0.020956416
0.009959613
-0.0057481886
0.0388601
0.025786504
0.004318535
0.018505959
-0.028301824
0.048421044
0.016301591
-0.028601745
-0.011878326
-0.047239393
0.022716496
-0.018871577
-0.02240314
-0.023215797
0.043471154
0.057979867
-0.008850621
0.011745723
0.028155874
0.036014378
-0.03439243
0.0012117098
0.01312843
-0.015931528
0.023266658
-0.0040905667
0.020860182
0.015499038
-0.031303544
-0.009822573
0.03996279
-0.03938912
-0.0013142575
0.008225098
0.025671825
0.0021615867
-0.047002096
-0.007701505
-0.024824537
0.041883867
0.0099714985
0.03709477
-0.058978807
0.03878645
0.04265513
-0.0023027356
-0.033822086
0.02161501
0.00467695
-0.031413265
0.036677793
0.00088164816
0.008473069
-0.00780465
-0.024378572
-0.009602034
0.003766809
0.037148092
0.01587763
-0.001419837
-0.0058944914
0.05649618
-0.05288273
0.026744377
-0.005188736
0.019075125
-0.082733095
-0.003922332
0.021962512
-0.05257764
-0.012311188
0.011912724
0.039706275
0.05134309
-0.008366052
-0.0319637
-0.029800829
0.059562594
0.015342966
0.03523601
0.047991876
0.030458437
0.008595083
0.018336229
-0.00211951
0.0044796253
0.0240303
0.0071918583
0.0014605178
0.046047468
-0.01282829
0.03417358
0.01662859
0.03712044
0.0018614642
0.03508169
-0.013036106
0.0144093605
-0.011907834
0.014853613
0.02050953
0.014099194
0.051505983
0.0019026869
0.0034307984
0.00574538
0.008733309
0.042501844
0.012264254
-0.005617812
-0.013282978
0.043603428
-0.0007691523
-0.03590646
-0.0066636973
0.0012997112
0.004738314
0.0065346803
-0.000230568
-0.004397399
0.018289227
-0.029481977
0.020773208
0.016711619
0.01089687
-0.00729071
-0.06009718
-0.0052307695
-0.0051419754
0.03429398
0.0009899354
-0.03765077
-0.02873569
-0.018986944
-0.06736714
0.010076178
0.031454884
0.035810035
-0.106964104
0.024911188
0.013234736
0.003990017
-0.00921831
-0.028131936
-0.016422179
-0.01855326
0.013463121
0.03611205
-0.045792844
0.0026798863
-0.0054277065
-0.0519298
0.0153945545
0.0067691426
-0.03190064
-0.074430384
-0.014175335
0.030584507
-0.024257964
-0.030804284
-0.0019469217
-0.07477124
-0.030867431
-0.014298562
0.030054148
0.037733063
0.05607238
0.01542021
0.01778478
0.014444071
-0.06700716
-0.043883562
0.016846903
0.038834594
0.0054071452
0.01064867
0.009804101
0.005456114
0.020682821
-0.013581211
-0.024144694
-0.005326421
0.030618537
-0.018622767
0.009401454
0.042215772
-0.0039867475
0.02188949
0.042067602
-0.030408632
-0.03175243
-0.024582874
0.047409646
-0.036897372
0.0029515894
-0.019799035
-0.0046384633
0.017709406
-0.0026684757
0.042459287
0.015516375
-0.013552237
0.009752573
-0.037063517
0.024104347
-0.0019780304
-0.06653326
-0.007513796
0.050547123
0.02994179
-0.039416976
0.01948226
0.041100524
0.009519886
0.023856247
0.03685758
-0.012426866
0.019977622
-0.01951632
0.0035476703
0.019428149
-0.018197274
0.0026904985
-0.009175494
-0.0077122604
0.039388504
0.030573636
-0.0029395483
-0.026784388
-0.024689415
-0.013025416
0.026536204
0.001196079
-0.030367605
0.0120880315
0.05160407
0.019233989
-0.026702557
0.010203826
0.028347522
0.05088837
-0.032505084
0.03658869
0.0028782794
-0.04251062
0.054192238
0.022143738
-0.008939625
0.05451498
-0.009627374
0.07238852
0.042907257
-0.02758298
0.023259042
0.04474547
-0.020019405
-0.027661985
0.0330026
-0.0040023923
0.015831579
0.058409974
-0.05002015
0.0065661957
0.0382291
-0.0227525
-0.02895407
-0.039537463
0.02530495
0.008494619
0.031875473
-0.013335379
-0.010369667
-0.06674087
-0.011362848
0.04102348
-0.055236127
-0.035164516
0.018120524
0.015736226
-0.014177949
0.016245788
-0.01621028
0.030955942
-0.0044775726
-0.015176404
0.01684008
-0.029875115
0.02289026
0.014547746
-0.010070135
0.03150197
-0.09793092
-0.0011510472
0.0049264664
0.01615719
0.018280415
0.01148793
-0.031489246
-0.017993856
-0.021676287
-0.02229181
-0.09935901
0.0022605034
-0.009751836
-0.013722317
0.013611713
-0.00032435963
-0.061648026
0.027120274
-0.019608162
-0.0044491785
0.014322583
0.03146217
0.029827902
-0.004885049
0.04993976
-0.0156194875
0.025186557
0.01860256
0.008432268
-0.03180975
-0.037686728
0.023252547
-0.0033160439
-0.0075133326
-0.032116715
0.021465342
-0.008593451
-0.019966248
0.013225826
-0.018820332
0.010050951
-0.041209828
0.016882902
-0.01864311
0.06629075
0.064122654
-0.03351678
0.053800303
-0.01397328
-0.020372905
0.00052120746
-0.008605141
0.006152747
0.030322587
-0.0438319
0.05253542
0.0036121141
0.041252803
-0.03171036
-0.013839174
-0.00720303
-0.009556055
-0.01616838
0.010951863
0.010507221
0.031408146
-0.015939152
0.046641264
-0.013942626
0.0048533385
-0.024392731
0.011777646
0.04398553
0.0064538224
-0.02035807
-0.0018209349
0.0034764255
0.013173066
0.010840573
0.0391041
-0.04823724
0.009694651
0.06507234
0.027012054
-0.022719493
0.0074292338
0.041971657
0.0064886245
-0.05979682
0.007388003
0.01465676
-0.035933416
0.022757981
0.02451159
-0.0141704185
-0.0043827365
0.03468942
-0.007491716
-0.002040287
-0.001094569
0.014225998
0.032097243
-0.027068224
-0.03688131
-0.040693473
0.014097608
-0.061256424
0.043987058
-0.008453757
0.01740574
-0.00045754045
-0.0015510749
0.01082016
0.028034706
0.00046755874
0.012773833
0.048308674
-0.00888024
0.0031206184
0.030246599
-0.024845516
0.041302044
0.012764369
0.03253605
0.04219207
-0.012502289
0.037848663
0.008157765
0.011364314
0.001963728
0.02085269
0.003328816
-0.026461136
-0.03984849
-0.023355195
-0.036825497
-0.07146228
0.032973
0.030365013
-0.061502367
0.0019390061
0.008279206
0.007868076
0.031197736
-0.008674747
-0.002264684
-0.06805699
0.0049048346
0.056710254
0.0015141501
-0.02378735
-0.034316164
-0.019729959
-0.023992319
0.018605564
-0.0013100244
-0.056366496
-0.04398945
0.02141585
0.010575358
0.01862984
0.031218864
0.019514754
0.012917391
0.041786864
-0.031544395
0.0059615355
-0.034021556
-0.0046157255
0.00584778
0.008491191
-0.008344587
-0.028957322
-0.02664749
-0.062158726
0.009210293
0.025734166
0.0650138
-0.012419537
0.02635345
0.051314093
0.025203042
-0.024862275
-0.027597893
-0.010792283
-0.037493482
0.04454561
-0.028627343
0.018993786
-0.018080965
0.019418215
0.058713935
-0.003965143
0.046482988
-0.011992764
0.036039572
-0.012570072
0.01775826
0.046960432
0.005091751
0.08108424
-0.024792876
-0.047404673
0.012461959
0.036890384
-0.02989477
0.02942612
-0.007995157
-0.060935326
-0.021394007
0.011918998
0.04169499
0.013886127
0.027332092
0.0035468559
-0.0018850776
0.027932152
-0.00890358
-0.058668483
-0.033218496
0.057299435
0.055157058
-0.022134542
0.014966073
0.0011798057
0.003532433
0.021337502
0.0337178
0.029711816
-0.018203955
-0.028720474
0.002670602
-0.0022808916
-0.018829633
-0.016692843
0.0057571325
0.04792841
-0.02061468
-0.03387419
0.036224905
0.021338783
0.009571718
-0.009681262
-0.0008690227
0.00021361001
-0.023402246
-0.011609929
0.011248698
0.018657833
-0.0029411698
-0.02792258
-0.03319221
0.07627933
0.023357848
0.011654021
-0.018444765
0.027052961
0.0055519035
0.017425211
0.07801858
-0.0074509745
0.0081343185
0.042832866
0.0009922795
-0.052234728
0.043313734
-0.033621233
-0.050454497
-0.025876874
-0.015176245
0.033627324
-0.04212788
-0.0015806695
-0.019189466
-0.03398678
-0.034483496
-0.0017237319
0.035908952
0.028911373
0.028431391
-0.002234484
-0.029681701
-0.07885342
-0.04733255
-0.0509911
-0.028251521
-0.016509268
-0.01464989
0.037371345
-0.015976487
0.009840689
-0.0175457
-0.02197316
-0.01600615
0.03151557
-0.04271344
0.007920407
0.03883125
-0.04137608
0.013691854
0.05856581
-0.013309604
0.008330782
0.00094754994
-0.0013797712
-0.038340323
0.0052409866
0.024283398
-0.028434744
-0.030026425
0.022628432
-0.031013478
0.07008863
-0.011383759
-0.011709966
0.029977387
0.009049904
-0.043696456
-0.020858828
0.03130468
0.02765233
-0.014974197
0.03395118
0.013705915
-0.05282409
0.047477905
8.7637454e-05
0.007505251
0.015831359
0.0052949856
-0.0060041547
0.0098572355
-0.021682717
0.012205876
-0.015127399
0.018400433
0.0072284094
-0.042761832
-0.00022431044
-0.055726286
0.03730885
0.031039575
0.017731467
-0.010269495
0.019456739
0.0012489031
0.043316554
-0.03608969
0.029847533
0.014931585
0.04200745
0.005735754
-0.0023472174
-0.023756102
-0.029650947
-0.05398015
0.020814102
-0.021530056
-0.01948543
0.026673717
0.008777551
0.019760936
0.045654327
-0.022949096
0.0068407017
-0.052592706
-0.008924173
-0.06423534
-0.0266064
-0.01018006
0.012251526
-0.038560405
0.014158364
-0.031011153
0.05951107
0.024384059
0.00047206972
-0.0017471481
-0.007432596
0.048704777
0.064660855
0.08108712
0.03407131
-0.034658305
-0.008792903
-0.00066440925
0.073906876
0.020977013
0.032990012
0.036830343
-0.010104999
0.0040810443
0.00735808
0.00096965814
0.040261112
-0.0079949
-0.035984155
-0.00510877
-0.01485233
-0.030483562
0.01559194
-0.0041573932
0.0032336377
-0.049915347
-0.0122734625
-0.00218821
-0.031838316
0.004961609
0.017498214
0.0049146125
0.0026639714
0.032325156
0.005227333
0.008137937
0.06622078
0.0022216123
0.015386123
0.014671588
-0.023779636
-0.003009065
-0.07606389
0.028202763
0.01501571
0.013121143
-0.01862434
-0.07848573
-0.00062440895
0.010190497
0.0376779
-0.0012084635
0.030702392
-0.05234336
0.02505814
0.020382237
0.018597623
-0.034738313
-0.007879
-0.026905775
-0.0014494304
0.000998223
0.043509804
-0.018007716
0.01487926
-0.010329792
-0.04608647
0.023380127
0.047003847
0.02250145
-0.024641136
-0.03761532
0.0061490703
-0.0008552009
0.02667352
0.022360925
0.016059585
0.012238761
0.001570723
0.045723937
0.013206183
0.11051775
-0.044950332
-0.015711725
-0.022534853
-0.015328852
-0.0032878146
0.022170344
0.0008494472
-0.0025030896
-0.0017374349
0.024506185
0.04882346
-0.0762493
-0.031895295
-0.069211654
0.04321187
0.023082506
0.052260105
0.029618656
0.0064475145
-0.009499714
-0.0073093493
-0.019758841
-0.026483051
-0.009945741
0.009378773
-0.005648124
-0.036287192
-0.022489332
-0.007981999
0.030741928
0.009166492
-0.09270547
0.032211203
-0.001959416
-0.031883072
-0.0010160413
-0.005270824
-0.0073607336
-0.05124595
0.02821694
0.03610399
0.054510556
-0.0023164288
0.008183087
-0.0463114
0.006687877
0.09934158
0.008981199
-0.010767164
-0.0032325618
0.024083469
-0.040963642
0.11240802
0.036383625
0.01935068
-0.03734102
-0.00451847
0.015238529
0.034811735
0.01880376
-0.030464392
-0.01643293
0.0035012015
-0.007229269
0.033057965
0.011637344
0.033266824
0.033535592
-0.0050253556
-0.0009151441
-0.021904793
0.031285554
-0.024348378
-0.05266307
0.00503808
-0.02588746
-0.01866663
-0.05269182
0.0043909405
-0.035831757
-0.01090417
0.05599685
0.085404426
0.018377647
-0.01571311
0.03933584
0.047160305
0.050436176
0.019015756
0.022919754
0.0006731511
-0.007546624
0.0033768248
0.052623976
0.03697274
-0.05353403
-0.034782298
0.056323346
0.033181958
0.009837154
0.0048641656
-0.06753938
0.057070576
0.0035144556
0.00775143
0.014445223
-0.029097777
-0.018114295
-0.017314544
-0.004070687
-0.002948395
-0.0042047426
0.0073214113
-0.04902474
0.00015095831
-0.06777278
0.02697632
-0.025521422
-0.017044332
0.035656802
-0.012993898
0.0023343386
-0.01554513
-0.038344212
0.040406134
0.0076620993
0.045169313
-0.024026122
0.018165307
-0.03374281
-0.01099274
-0.044429373
-0.012304355
-0.01974062
-0.014637419
-0.014709439
0.020542836
-0.045669917
0.0106053995
0.024984019
-0.031032324
-0.041834023
0.009756327
0.004321048
-0.047874957
0.04595033
0.010585876
0.023685485
-0.03539449
0.024856577
-0.0052860416
0.025076676
-0.026157914
0.027033947
-0.009096282
0.06613408
0.019589085
0.080949165
0.014931121
-0.0061809905
0.012335395
0.0064400407
0.040090762
0.00043858052
-0.03589227
-0.034788843
-0.06092199
0.00132595
0.007813389
-0.010178207
-0.02898151
-0.008298941
-0.014791265
2.5890768e-07
0.026909512
-0.041066233
-0.0051441127
-0.03570632
0.047016166
-0.05935024
-0.014436153
-0.059834413
-0.0092787715
-0.023071174
0.05359502
0.015920483
-0.024563914
-0.01464934
-0.0054800464
0.020715574
0.010178599
-0.0108331125
-0.013653999
0.047565132
-0.028848896
-0.028880145
-0.014818448
0.0047018495
-0.042653803
-0.0059077293
0.0019121994
0.0033142134
0.03021199
-0.012618677
0.031587593
-0.014994412
-0.0042180037
-0.034613676
0.02130931
-0.023083322
0.02754796
-0.08452338
-0.015824474
-0.0020871526
-0.073542364
-0.0077479496
0.031698816
0.022567365
0.0430028
-0.035013
-0.045970414
-0.041862614
-0.012189508
-0.01300424
0.015237986
0.010177097
-0.031655286
-0.01981406
-0.006262574
-0.033195764
0.051390525
-0.008112115
0.019087836
0.0011269022
0.016164446
-0.020704646
0.03003944
-0.020667637
-0.03600712
0.007450614
-0.014162654
-0.0057822233
-0.031624373
0.009763023
0.011938538
0.06099496
0.027477622
-0.07326536
0.0172843
-0.017538415
0.016487898
0.07376038
-0.03184249
-0.0059519177
-0.002123149
0.012298867
-0.041843496
0.021944944
-0.0033900077
0.021455256
-0.04430209
0.027256798
0.00061204657
0.04356993
0.061898325
0.009351723
-0.013958566
-0.023633322
0.03744019
0.009230701
0.026663704
0.06788266
-0.044190176
-0.064212516
0.0011821603
-0.036629528
0.001085151
-0.017091522
-0.066493005
-0.0071241567
-0.01495724
0.0017095921
0.0070448746
-0.021338888
0.0076618847
-0.04847719
-0.016578352
0.045124035
-0.00060764677
-0.060199685
-0.038925245
0.020226004
0.027253026
-0.021032363
0.005336762
0.020549707
0.029943703
-0.027692506
0.017238514
0.028106436
-0.029404964
-0.026237033
0.010154471
0.019586757
0.061168455
-0.009986433
0.015798304
0.017188665
-0.059082214
0.048237577
0.009476631
-0.04554809
-0.02456017
0.048584595
0.013878789
0.056452133
-0.03526131
0.007702154
0.0015378315
-0.02277315
0.00023763464
0.03027448
0.024407374
-0.01693447
-0.028193356
-0.040407766
0.012468655
-0.021125797
-0.038396664
0.41920435
0.019525789
0.017166385
0.00832565
-0.03300549
0.027176518
-0.014247918
0.0045041232
0.035810173
0.02281947
-0.02052156
-0.0066838176
0.0061620073
-0.014427988
0.063997656
0.011858444
-0.049790908
0.005663757
0.0437914
0.00071645924
-0.022161894
0.004228997
0.030630816
0.0037873564
0.073893934
0.018951153
0.0019012038
0.029393459
-0.023528151
-0.05483353
0.019811459
-0.04992537
-0.023964483
0.0008904699
-0.048638087
0.048430473
0.012646604
0.020143354
-0.046654634
0.10817777
0.0032452974
